solver_type L2R_L2LOSS_SVC_DUAL
nr_class 4
label 0 2 1 3
nr_feature 17661
bias -1
w
0.10304108983371575 -0.01598139194426371 0 0 
-0.10105762187289154 0.036924554340239932 -0.074167871186085491 -0.085660909826680565 
0.10304108983371575 -0.01598139194426371 0 0 
0.096415059316082852 -0.22524782517900416 0.0057876970206191015 -0.20527350946283732 
0.10304108983371575 -0.01598139194426371 0 0 
0.49853546654111164 -0.36529576491379645 -0.67119977820312571 -0.33102966749623425 
0.37946699053195354 -0.37258584466570094 -0.011645768609451256 -0.11565353534191777 
8.1262844635086829e-05 -0.011132786550850735 -0.14539324297939793 -0.023992578057471813 
0.090516183502933834 0.12788712037883337 -0.057700147069629004 -0.11714505252816899 
-0.17628434877881233 0.25144812321307775 -0.4387965515663953 -0.045752094929343332 
-0.085084512070204302 0.37641813665422869 -0.054175006956281475 -0.21788400256273746 
-0.10206924207541673 -0.23614176244310089 -0.11332721347697518 0.29990156467398715 
-0.17153824960095243 0.063771114872440374 0.0019986350059170641 -0.098637915264253764 
-0.25527859468520475 -0.12051838407011256 0.11950942232161446 -0.08961106155605382 
-0.012686002731738116 -0.025747410619481038 0.017565746858140878 -0.15043223674740436 
0.044508631782506032 -0.23924992551526167 0.1209320418636143 0.18133583401749548 
0.26691672901030949 -0.11124117488697946 -0.050188067099185801 -0.3258716780570648 
0.10304108983371575 -0.01598139194426371 0 0 
0.10304108983371574 -0.082684084186666257 0 3.4694469519536142e-18 
-0.15423187517909864 0.068995738705422166 0 0 
-0.094743720322293418 0.017172208252357064 -0.10601043455150846 -0.15276862855107495 
0.060015790105129391 -0.071926305165314688 0.11160842059794493 0 
-0.014416908632809811 0.016662782076469415 0 -0.010556604565213852 
0.11878326069997634 -0.12279086686589996 -0.055031812600846094 -0.13658507544302531 
-0.15423187517909864 0.068995738705422166 0 0 
-0.16875020905966173 0.587061938247465 -0.084214262660541578 -0.16990231573883138 
-0.019661529929779698 -0.062684020347681252 0.0043353074069456821 -0.085869889607142841 
0.08261548930098421 0.017416408857563362 -0.040363286708545228 -0.12604243022385642 
-0.011740929087952524 0.13783054502353437 -0.22684424434282091 -0.056323380488194012 
-0.063838046699123574 0.13417390815145869 -0.041333320798695422 -0.11076229796060036 
-0.0053786828314833068 0.026697123922262454 -0.20379026190989349 -0.16364490828468095 
-0.15423187517909864 0.068995738705422166 0 0 
0.046431437002594611 -0.045519995762258854 -0.13667723061273043 -0.13999414222975665 
-0.26305835356658114 0.32452865965473421 -0.042135077169495772 -0.13117499617046272 
-0.15423187517909864 0.068995738705422166 0 0 
-0.047390117500107673 -0.13200033832177094 -0.13167871307058254 0.0070678056909081102 
-0.11879692693160296 -0.037937263134423999 0.21619756535027096 -0.12157187445781473 
-0.14441715706423464 -0.1381059481746203 0.12923030048331718 0.086782235756877657 
-0.15423187517909864 0.068995738705422166 0 0 
0.27785245278736737 0.068995738705422152 -0.20533879042791381 -0.16956222430132703 
-0.15423187517909864 0.068995738705422166 0 0 
0.091134493245353068 -0.20239878681468537 0 0.19875644431430234 
-0.077895023339140584 0.5720967048665202 -0.18280904845519516 0.023411504120336563 
-0.11332537461617587 0.14422130615545034 0.009970174301857735 -0.19910547206379237 
0.059790487376530019 -0.037214565179691364 -0.11364162765420593 -0.081427151612225468 
-0.0046183906343904863 0.0091681998496046992 -0.12204791936064502 -0.085393657966823897 
0.050739754135811131 -0.13046937928563992 0 0 
0.050739754135811131 -0.13046937928563992 0 0 
-0.17461830585966956 0.096966190290398865 0.1113467042100753 -0.01453057081248333 
0.050739754135811131 -0.13046937928563992 0 0 
-0.020411814925256823 -0.13046937928563992 -0.065504917584721351 0.20713218031513125 
0.22838288130074938 -0.15145788055394807 -0.018387015410589364 -0.11497035560464748 
0.36043824580179262 0.054297385573809767 0.017299920841211784 -0.41394392098224114 
-0.071267534058206933 0.078515353333879545 -0.077477568802279836 0.055155309757274763 
0.050739754135811131 -0.13046937928563992 0 0 
0.050739754135811131 -0.13046937928563992 0 0 
-0.25626956054983913 0.29559131501408825 0.12146553118532731 -0.39856233607773023 
0.050739754135811131 -0.13046937928563992 0 0 
0.30802189985870804 -0.65868405431098576 -0.1864624558098778 0.10263628068406343 
0.050739754135811131 -0.13046937928563992 0 0 
0.0071994996342997384 -0.19230900685030303 -0.10607038908584812 -0.092031256393638405 
0.14349963355755363 -0.055593419631389834 -0.031478236950901843 -0.27498057300448864 
0.34035650275864304 -0.30622910276375792 -0.031478236950901843 -0.12880587144574648 
-0.005618538447678699 -0.020822307428382498 -0.13831073506831454 -0.086834837828958067 
0.13119270300799746 -0.025500081022028071 0.15307465647238305 -0.19795013101153555 
0.091891048102076267 -0.077380083446878342 0.085057478779104842 -0.22398308093805286 
0.068148680829738198 -0.044946032985754308 -0.010312009610822253 0 
-0.10783136840190649 -0.15651039280118764 -0.04745196872766598 0.094215781435550192 
0.17463078644482999 0.21351766601477148 0.010743581178387506 -0.17890506199718989 
0.28337726605810454 -0.22291716303222175 0.076672309372533082 0.018291261296052463 
-0.24358026462920454 -0.074821139829585076 0.2886332198702829 0.027037358014070294 
-0.17815042445261381 -0.33707248389168665 0.29897841889426058 -0.16328894718605236 
0.10678786387430393 0.051983835937246967 -0.7256752203852066 0.041483851832399568 
0.043938967826731172 -0.059116322102276422 -0.11144998059552177 0.022824926121720414 
0.27980400589520932 -0.22693095199950236 -0.010312009610822249 -0.076515311496731575 
0.068148680829738198 -0.044946032985754308 -0.010312009610822253 0 
0.068148680829738198 -0.044946032985754308 -0.010312009610822253 0 
-0.40366979623186472 0.17897346802248407 0.33723639032958752 -0.35143032329584389 
-0.0682766105476596 0.026475202879498342 -0.11398118959352455 0.048259436447965307 
-0.18354372796390378 0.28467722685427932 -0.027161664236081913 0.13936228282936761 
0.013636864008956825 -0.103590714559011 -0.33678002116218225 0.13665603078315003 
0.25201268486897854 -0.2185245203299806 -0.33009262719166366 -0.21790413987196161 
-0.16245418397378489 0.21351808941649936 -0.14491352578361683 0.010309178400199105 
-0.086557859102428553 0.081103399709067936 -0.11448274156088614 -0.10782851923468617 
-0.032138178493544757 0.067706024845127874 0 0 
-0.19280189756283353 0.20971028499265701 0.16157474559580368 -0.40900758851800784 
-0.032138178493544757 0.067706024845127874 0 0 
-0.032138178493544757 0.067706024845127874 0 0 
0.11702999435453521 -0.1784674115028678 -0.076517079383060821 -0.036241087764528515 
-0.032138178493544757 0.067706024845127874 0 0 
-0.032138178493544757 0.067706024845127874 0 0 
-0.2701378958355512 0.15429242400070328 0.27330339716287233 -0.052594755657274235 
-0.032138178493544757 0.12424631366776069 0 0 
-0.0033598089654349474 0.0032879763401834575 -0.17450771893532252 -0.14618844510094681 
-0.19532731841081818 -0.14737585345714171 0.08258578095419386 0.23979660068843156 
-0.013339976313909846 0.046727969464184269 0.085751650780250141 -0.23212087884544308 
-0.14593624759641002 -0.23298992612057323 0.22063430454745159 -0.064965396668345221 
-0.17178056990669663 -0.010940127589868353 0.17492651526331102 0 
-0.17178056990669663 -0.010940127589868353 0.17492651526331102 0 
-0.1717805699066966 -0.04062009709295835 0.16524157605123252 0.0024447198725382102 
0.035851380072801912 -0.19622695364507281 0.15930572754702055 0.06178969797582054 
0.021374161412313419 0.082583420823067979 0.15549197029820339 -0.076450800119874873 
-0.17178056990669663 -0.010940127589868353 0.17492651526331102 0 
-0.17497233582173377 0.32035400583735302 -0.094483227948089235 -0.19979697267888907 
0.022601323141559163 -0.16671301766462671 0.16724064754887938 -0.11955798821834093 
-0.17178056990669663 -0.010940127589868353 0.17492651526331102 0 
-0.17178056990669663 -0.010940127589868353 0.17492651526331102 0 
-0.17178056990669663 -0.010940127589868353 0.17492651526331102 0 
-0.016963483380907352 -0.15060096029858022 -0.0057096362958951197 -0.30355045462650765 
-0.12537925756412649 0.039116343949376867 -0.14850882049346484 0.18266260574832593 
0.15802993886706376 -0.26474616525277672 0 0 
0.15802993886706376 -0.26474616525277672 0 0 
-0.17432035540370344 0.10175940922862396 -0.24064737119268304 -0.1765918794666228 
-0.066761539002439516 0.33573407215745621 -0.21107564669849976 -0.15881989358574516 
0.084311800641608453 0.075062609227596888 -0.15844384302228934 -0.10135598562926024 
0.15802993886706376 -0.26474616525277672 0 0 
0.08833797507673366 -0.056128493311113047 -0.27235510557719089 -0.093076960583013429 
-0.042106350516562696 0.34542820339261265 0.076413522621994731 -0.14623582671220756 
0.25911652568839988 -0.26474616525277672 -0.05314352807527159 -0.1331559179065839 
0.15802993886706376 -0.26474616525277672 0 0 
-0.0086081275834237799 0.19824472615049596 -0.080274370230766459 -0.30260795250205713 
0.15802993886706376 -0.26474616525277672 0 0 
0.15802993886706376 -0.26474616525277672 0 0 
-0.082905834878002349 -0.0081727745837059454 0.0010465655013002033 -0.01361744272588976 
-0.043063662219757187 0.1273310880106196 0 -0.039549269702088427 
-0.19929816634714395 -0.071201971165407996 -0.1510240457534992 0.12191174818995276 
0.056565768627931397 -0.12907825991759386 -0.0073346857289188407 -0.023220525997162129 
-0.34577938943666087 0.3179359149006441 -0.059228866457951675 0.042928823352404909 
-0.17083303295450042 -0.19974423718263012 -0.16925299676797259 0.28187954969738338 
0.058305632796807852 -0.41447285398879508 0.23389108855040436 0.013635668582984543 
-0.045583085237415708 0.29693757922540809 0 -0.039549269702088427 
-0.082201834729536377 -0.017158316018036832 -0.10927180528259611 0.050288683991856861 
-0.10723693252118607 0.22897952144247244 -0.047587882060960665 -0.11823644829513863 
-0.043063662219757187 0.1273310880106196 0 -0.039549269702088427 
-0.043063662219757187 0.1273310880106196 0 -0.039549269702088427 
-0.043063662219757187 0.1273310880106196 0 -0.039549269702088427 
-0.043063662219757187 0.1273310880106196 0 -0.039549269702088427 
-0.074022441814920098 0.060916975433832024 -0.079415603645726807 -0.18825022668790764 
-0.043063662219757187 0.1273310880106196 0 -0.039549269702088427 
0.11429452459483812 0.11381325296120814 -0.23252883899786075 0.0020813387535428621 
-0.043063662219757187 0.1273310880106196 0 -0.039549269702088427 
-0.21276671365663902 0.12164318515071196 0.095016073132776005 -0.091540324849906374 
-0.086383119219246213 -0.072844784187152234 -0.087652496988200226 0.16498901890100343 
0.13705749562779052 0.10039075995981173 -0.23663202433006966 -0.31771886318184833 
0.23667168332675087 -0.27060169576254667 0 -0.061260093956185264 
-0.011815229493608602 -0.03951516496616652 -0.061794517186130576 -0.036412693660552505 
0.23667168332675087 -0.27060169576254667 0 -0.061260093956185264 
0.23667168332675087 -0.27060169576254667 0 -0.061260093956185264 
0.23667168332675087 -0.27060169576254667 0 -0.061260093956185264 
-0.23705234188346738 0.22481843339354882 -0.013306309063064117 -0.14370133793472373 
-0.23705234188346738 0.22481843339354882 -0.013306309063064117 -0.14370133793472373 
-0.23705234188346738 0.22481843339354882 -0.013306309063064117 -0.14370133793472373 
-0.23705234188346738 0.22481843339354882 -0.013306309063064117 -0.14370133793472373 
0.21609572293673304 0.097425821594058992 -0.026728616915666477 -0.07904349813699954 
0.23842307992048081 -0.10875084609008885 0.00085750608141899054 -0.19510967801999568 
0.24974251434813322 -0.25820832207994199 0 -0.086990634367458894 
-0.038776067156819846 -0.31336482088231327 0.14651880532406808 0.32156385145918143 
-0.14078100461334492 0.10974414585049466 -0.099416313793833755 -0.087570825582715908 
0.15941581788090364 -0.17077838890498859 0 0 
0.27353439836520249 -0.33060655409936823 -0.023731004527411732 -0.094509020542251951 
-0.10392345164974522 0.082662561886794411 0 -0.0024024683968517681 
0.13768749634198085 -0.17818088249785174 3.4694469519536142e-18 -0.021913265035864986 
0.049754478381117476 -0.016048221954634598 -0.14651403433611654 0.14441862152375215 
0 -0.066702692242402564 0 0 
0.1227854349816945 -0.11556158945061215 -4.3368086899420177e-19 1.7347234759768071e-18 
0.28852671848976724 -0.19652260360609175 -0.39384533250820397 -0.39905122531599274 
0 -0.066702692242402564 0 0 
0.07163495448544048 -0.079885080444228457 -0.0026441109100972314 -0.043875027945991373 
0.4454006689287302 -0.2302625543354607 -0.071033691512831398 -0.15693575125511941 
0.32322518429398406 -0.13971672074082878 -0.07813542732104227 -0.043875027945991373 
0.047641431702872931 -0.024591741080581053 -0.0026441109100972314 -0.043875027945991373 
0.047641431702872931 -0.024591741080581053 -0.0026441109100972314 -0.043875027945991373 
0.047641431702872931 -0.024591741080581053 -0.0026441109100972314 -0.043875027945991373 
0.047641431702872931 -0.024591741080581053 -0.0026441109100972314 -0.043875027945991373 
0.047641431702872931 -0.024591741080581053 -0.0026441109100972314 -0.043875027945991373 
0.047641431702872931 -0.024591741080581053 -0.0026441109100972314 -0.043875027945991373 
0.047641431702872931 -0.024591741080581053 -0.0026441109100972314 -0.043875027945991373 
0.013084727428842931 0.090640574609601843 -0.0026441109100972314 -0.046995903924959288 
0.047641431702872931 -0.024591741080581053 -0.0026441109100972314 -0.043875027945991373 
0.047641431702872931 -0.024591741080581053 -0.0026441109100972314 -0.043875027945991373 
0.090326696467229795 -0.087429933174953442 0 -0.086990634367458797 
0.090326696467229795 -0.087429933174953442 0 -0.086990634367458797 
0 -0.011022570598684115 0 0 
-0.08766198924177894 -0.17610536159256746 -0.10684965009050781 0.39073692239382379 
-0.086979863362030702 -0.05087757130011155 0.1016241758113192 0.077248725320031644 
0 -0.011022570598684115 0 0 
0.29042328077127244 -0.19454128341840798 -1.7347234759768071e-18 -0.11974115208341661 
0.20315360910598343 -0.22484805445455447 0 -0.019837661261054382 
-0.11394685116968316 -0.0079935145139179223 -0.031806240327883178 -0.026163180043649023 
0.33802643017664791 0.10647438209095368 -0.34088653448610678 -0.22121615829132624 
0 -0.011022570598684115 0 0 
0 -0.011022570598684115 0 0 
0.10172018615363915 -0.067430958825287102 0.10823568667890339 -0.057891564044356504 
0.058081093788953167 -0.18761067883473914 0.086913966094606221 -0.33425272442805393 
0 -0.011022570598684115 0 0 
0.19842457549157272 -0.15601679146688313 -0.023796318774650767 -0.17507922834386661 
0.011931199275157242 0.037158171132311693 -0.67148373660124561 -0.37629893350867805 
-0.25634968304644251 0.16174828325641893 0 0.019005492052322846 
0.12196362979773885 -0.14963887533630715 -0.10256607087674591 0.19796004632013126 
0.20830774278396733 -0.25349679544047521 -0.046791682551301311 0.077679133089596508 
0.18158925663252243 -0.14843745839323358 0 -0.073405123715052145 
-0.10019958451901938 0.13015155778077736 -0.26958482048560084 0.18494194021770827 
0.1781350139526014 -0.18863505468742328 -0.017624247380164899 -0.14793365072899003 
0.18158925663252243 -0.14843745839323358 0 -0.073405123715052145 
0.18158925663252243 -0.14843745839323358 0 -0.073405123715052145 
0.18158925663252243 -0.14843745839323358 -0.023127157998948392 -0.073405123715052145 
0.18158925663252243 -0.14843745839323358 -0.023127157998948392 -0.073405123715052145 
0.14669637657526161 -0.044160964788261765 -0.30363012094649 -0.29930192338985401 
0.061372751640479214 0.043660745677073266 -0.12068702891167096 -0.24221695196138668 
0.029008409986443891 0.10770546856468199 -0.13879196725520354 -0.18111799296766579 
0.27084652090187733 -0.41819164773122625 0 0 
-0.263177145992252 0.10380377404683538 -0.096284921360397666 -0.13870190385683986 
-0.068096339036144884 0.075805609268145294 0.27017569322897717 -0.23514624984688359 
0.27084652090187733 -0.41819164773122619 0 0 
0.14680629709037105 -0.32093782302214779 -0.32806470985847991 -0.10075035733207523 
0.11932195913390355 -0.35182553601841565 -0.15567229455761983 0.10574475213565135 
0 0 0 0 
0.66360450282769912 -0.5881864788428971 -0.38790042514750084 -0.50140437718354103 
-0.17724687884890594 0.023771341370004129 0.12059743306319373 0.15540402398540107 
0.18400722106382289 -0.26501277917824495 -0.014629675724743005 -0.074528527013937931 
0.073215946588504194 -0.14445478975778975 -0.11544806600558841 0.025743389254131235 
0.18400722106382289 -0.26501277917824495 -0.014629675724743005 -0.074528527013937931 
0.057255625729628376 0.37398692433164649 -0.22247871509421907 -0.34352980676838252 
0.18400722106382289 -0.26501277917824495 -0.014629675724743005 -0.074528527013937931 
0.18400722106382289 -0.26501277917824495 -0.014629675724743005 -0.074528527013937931 
0.12661303210049832 -0.05442849873800415 -0.12985357867537844 -0.13833546052717108 
0.031771027220182498 -0.12686906921404223 0.22378424945393632 -0.1135626849980831 
-0.19702369132769809 0.25033480157740207 0 0 
-0.19702369132769809 0.25033480157740207 0 0 
0.049290521761853723 -0.36674662201956187 0.080326486541886705 0.039594644852229695 
-0.15229913657993804 0.26316221000888679 0.12131183160493782 -0.23736369162406196 
-0.19702369132769809 0.25033480157740207 0 0 
0.094670288599821656 0.13617276462733377 -0.059340323574770086 -0.16022627981623955 
0.07226544247372152 -0.065535854466936716 -0.27541895596388172 -0.025975655826751036 
-0.12730582323762535 0.047893558096102087 -0.059301505135550936 -0.021832275781629627 
-0.19702369132769809 0.25033480157740207 0 0 
-0.19702369132769809 0.25033480157740207 0 0 
-0.31650678785929676 -0.11524954058332625 0 0.33960209337769653 
-0.2189415571701388 -0.14577173293209561 0.16863726624089456 0.35917599335280354 
-0.07315259675059424 0.30284995589500457 0 -0.044185823252380033 
-0.07315259675059424 0.30284995589500457 0 -0.044185823252380033 
-0.084666832751132778 0.31737841312582304 0.13697498390863291 -0.32117418577800921 
0.088285462660848038 0.023517662054852336 -0.40387192662040794 -0.069444289436978168 
-0.07315259675059424 0.30284995589500457 0 -0.044185823252380033 
-0.032482449053061406 -0.16033478700164883 0.084292180776732395 0.056839398014119621 
0.52494535449034108 -0.3533222599101834 -0.17575768834900218 -0.004118640714560755 
-0.24132019346308706 0.040832128800635054 0.0070046575944663937 -0.040193549359825255 
0.0043260864666167555 -0.11142055444288872 0.1024479090336704 0.34453302886727666 
-0.07315259675059424 0.30284995589500457 0 -0.044185823252380033 
-0.41272312333243183 0.040646891818111881 0.21833779850663546 -0.012740358123588976 
0.25654961971336437 -0.20261433603705709 0.072727335871018164 -0.29201276280916144 
0.12529787460198233 -0.055872474999231682 -0.069671921518496563 -0.11937165675991081 
-0.036572299741970044 0.10753577924335064 -0.072230382027865581 -0.098518264616839643 
-0.052087905313112401 -0.24611018717531963 0 0.35653504565302485 
0.16464105552306296 -0.1784031138469665 0 -0.055585888715607039 
0.16464105552306296 -0.1784031138469665 0 -0.055585888715607039 
-0.11843855218695468 -0.12746992877756677 0.24545698373651678 -0.31110111112118044 
0.16464105552306296 -0.1784031138469665 0 -0.055585888715607039 
0.16464105552306296 -0.1784031138469665 0 -0.055585888715607039 
-0.35721037352382617 0.3814000754332223 -0.058864743817929652 -0.048526318838952476 
0.16464105552306296 -0.1784031138469665 0 -0.055585888715607039 
0.11556502640705892 -0.1063600686492209 0 -0.0077648315805715308 
0.19679839402982321 -0.49054318158534183 -0.089067716286056822 0.41603452400771629 
0.11556502640705892 -0.1063600686492209 0 -0.0077648315805715308 
-0.0093945460664202896 0.22995355807364076 -0.015796801437651272 -0.16593355252482522 
0.11556502640705892 -0.1063600686492209 0 -0.0077648315805715308 
0.049286372015977742 0.044906649588045564 -0.075772640392980525 -0.028887557086806608 
-0.021044467357217423 0.026591181834341698 -0.037864011686563989 -0.1752507338338552 
0.11556502640705892 -0.1063600686492209 0 -0.0077648315805715308 
0.11556502640705892 -0.1063600686492209 0 -0.0077648315805715308 
0.11556502640705892 -0.1063600686492209 0 -0.0077648315805715308 
0.12332761926498952 -0.35087084420022219 -0.1241393504164133 0.1896849116306886 
-0.054733194466651536 -0.15361065303375435 0.0896928086930424 0.014707125032802124 
-0.066649579860129926 0 0 0.12855143473694763 
-0.066649579860129926 0 0 0.12855143473694763 
-0.066649579860129926 0 0 0.12855143473694763 
-0.066649579860129926 0 0 0.12855143473694763 
-0.43845621011785768 -0.32187566621217983 0.39185686937675351 0.29767501030753563 
-0.25771132036722616 0.22578879505096247 -0.034239810077315219 0.019152025181736851 
-0.36973194786054797 0.14244500168826735 0.094474064879043348 -0.11213951332004782 
-0.031155820044399242 0.058371230530039508 -0.12337979732000584 -0.022856655907353831 
-0.066649579860129926 0 0 0.12855143473694763 
-0.066649579860129926 0 0 0.12855143473694763 
0.047786454370715568 -0.37318135096268984 -0.015620787716290427 0.41138348901913091 
0.33155992393931993 -0.533428484668929 -0.12836129187507161 0.04858954879268744 
0.026364572182640659 -0.015232607898586867 0.17331756743569987 -0.17995991865182837 
0.037021550124929671 0.079488784346512575 -0.095197692432663197 -0.065608872279556724 
-0.1021342245303493 -0.21004252088990144 0.25989972295361363 0.13644141151292319 
-0.081420492323149823 -0.0071634527197656644 -0.056245841244460214 0.055547458755844228 
-0.06868182324014839 -0.054537297022847896 -0.092659099371797796 0.14314554755232922 
0.30783068919231588 -0.47084140890975373 0.17612124289063724 -0.14768271072462186 
-0.034441461795094337 -0.17809627067809325 0 0.21357886402064127 
0 0 0 0 
0.098451705200903641 -0.24415025329899293 0.026436572943929246 0.27166745733751085 
0.075852848366289347 -0.031230674889769296 0 0 
0.075852848366289347 -0.031230674889769296 0 0 
0.38013456203097051 -0.27668806244585681 -0.12836129187507164 -0.19219178328935727 
-0.032816149691877516 0.050179242390129497 -0.22431390125612624 -0.058441993066488659 
-0.048672339684035282 0.178655304278063 0 -0.013418439435226862 
0.0096178485315244755 -0.085910250532477903 0.11335501456620813 -0.037673240498135731 
0.23510918602615988 -0.17572893518815191 -0.043862997345459218 -0.36088385338256468 
-0.64853760440716279 0.10117723850848875 0.28248043077195684 -0.26496082082196903 
0.075852848366289347 -0.031230674889769296 0 0 
0.075852848366289347 -0.031230674889769296 0 0 
0.075852848366289347 -0.031230674889769296 0 0 
0.38447102771448977 -0.47179161791522711 0 -0.12733890884867824 
0.30963020253523982 -0.35383930835533639 -0.1326964359490459 -0.28828543957648867 
-0.25152583067073908 0.29793344943709826 -0.12135133707662885 0.19030792079509176 
-0.057276154546525723 -0.08421693922359523 -0.017980650186048022 0.071080984826602536 
0.060312834716929893 0.094266545858894962 -0.12836129187507164 -0.28730587966909027 
-0.0071769271061087499 0.17465840937450408 -0.12836129187507164 -0.27678087874420343 
0.074420200720079044 0 -0.12836129187507164 -0.16443242140240488 
-0.12228374206595069 -0.030406191863932459 0 0.23235901352022789 
-0.12228374206595069 -0.030406191863932459 0 0.23235901352022789 
-0.034497005620695208 0.06056713509644869 -0.24220853478681381 0.015324050636469572 
-0.036196690857812706 0.013857035511780188 -0.010285861640171215 0.011691564356993835 
-0.38916965965529943 -0.050896061362768148 -0.18951475081711291 0.35126640501315415 
0.10455551299506859 -0.14933789709109585 0.054189561113910094 -0.40431004792291558 
-0.18474594734304661 -0.069887809293268932 0.014452824045636073 0.080214992653472122 
-0.12228374206595069 -0.030406191863932459 0 0.23235901352022789 
-0.10566264433237042 -0.13056241485523321 -0.094880203162314269 0.39916522414209543 
-0.12228374206595069 -0.030406191863932459 0 0.23235901352022789 
0.020054423750592243 -0.0030070347638178705 -0.16965301878789657 0.041619236930304553 
-0.19284183531106472 0.18484130327518253 0.0054493693030943507 -0.24417989037912152 
-8.6736173798840355e-19 0.17173953067501679 -0.037835731231935656 -0.14092531509061829 
-0.24587831298339502 0.097993640865377513 0.0025155429884862746 0.22293490878730088 
-0.38242746394428889 0.31606077462683602 0.064137051684192481 -0.063834326224704321 
0 0 0 0 
0.027672888867239148 -0.03311511474337081 -0.014429595710583653 -0.038139315213207216 
-0.22681986225528189 0.16554618845695473 0 0 
-0.19459418137637835 -0.20216852450983444 -0.26292359603748822 0.30519381032238102 
-0.23459597254787323 0.036512229303198224 -0.1507208884201828 0.0065713201088935906 
-0.14108176024604072 0.27056048147443179 -0.056784842617445305 -0.16021697786773867 
0.17453938152641529 -0.025634401678335535 0.24189102037040244 -0.43556776638348788 
0 0 0 0 
0.17292784149389104 0.10631470594482613 -0.4682855594667526 -0.3820480442241283 
-0.21957358285909837 0.22020253586924488 -0.099644767478770796 -0.20133729521960375 
-0.076180068027279405 0.16118586469209809 -0.082136856570158526 -0.12180900902574461 
0 0 0 0 
0.083073967764130424 0.034805677727124104 0 -0.13410800519680818 
0.051135539447715615 -0.010243279307305989 -0.0071575201562468806 -0.11979808392051675 
-0.21780578618892354 0.18424842735520036 -0.29721504228087514 -0.025233516647938471 
-0.091270570801578896 0.13494853263073076 -0.066493498582337399 -0.080102958727859469 
0.024554472580172709 0.02316932187970127 -0.15935887666062493 -0.065448856512069317 
-0.22681986225528189 0.16554618845695476 0 0 
-0.22681986225528189 0.16554618845695476 0 0 
-0.22681986225528189 0.16554618845695476 0 0 
-0.22681986225528189 0.16554618845695476 0 0 
0.22949281253842096 -0.28943720582631283 -0.26285030266957887 -0.065095184991330921 
-0.051909523526930866 0.19549094021120769 -0.018022061743088458 -0.12130381991420286 
0.0064473517937229108 0.10919064461655857 -0.034725178167855579 0 
0.09008640090497147 -0.10764382320410582 0 0 
0.09008640090497147 -0.10764382320410582 0 0 
0.054641405449594588 -0.050125785404458612 -0.12262792121152347 0.19824098081354483 
0.087301784600343213 -0.18013802992243474 -0.096471056081962964 0.2264696825150419 
0.25923283608306269 0.11945848520111828 -0.42037157440628531 -0.27261558322153956 
-0.063755279385938862 -0.084503545436857994 0.21746880647858424 0 
0.09008640090497147 -0.10764382320410582 0 0 
-0.051990267545261482 0.018189551895711999 0.045326413474696459 -0.27968554918105654 
0.33275272709686943 -0.22161617920135276 0 0 
-0.18665118970910552 0.21421712322239339 -0.10719249097713292 -0.14262963636056747 
0.1756947675360038 -0.14720778664498219 0 -0.12231319423004665 
-0.12880333188779677 0.20955080990463923 -0.091200827152637637 -0.12824672133229997 
0.16989622001736732 -0.18538097157733163 -0.0099447420576710011 -0.061213024995143375 
0.024009284112698676 -0.16240764266693708 0.20819513940645876 -0.13855616070628454 
0.09008640090497147 -0.10764382320410582 0 0 
-0.24128246965625855 0.37810268758490517 -0.16828478986299464 -0.01106086041419246 
-0.15549633538175672 0.19519431711424359 0 0 
0.074823427477348881 0.097529042777484143 -0.01562078771629043 -0.14259272852939028 
-0.15549633538175672 0.19519431711424359 0 0 
0.048676889012764402 0.11369576688981796 -0.22474290572204195 0.077225338905955482 
0.13877096897201846 -0.12805699878201635 -0.12526171925352667 0.12457432492495657 
0.16162152540631211 -0.16731098550271883 0.20829097065834434 0.10852562971670435 
-0.096649895107263004 -0.049341823949066665 0.31250154670292507 0.060815997677520259 
-0.078086995773652329 0.10163708405981035 0.082683136203744234 -0.087562262452314826 
-0.19812537028584756 0.26279645972558896 -0.013368489452091046 -0.077016604896473037 
-0.078482667803752043 0.011184176602980801 -0.078908546006735428 0.16086314613242678 
0.040229424222323153 -0.15438616842697628 0.13910585396400946 0.07469773458872643 
0.033286539047205271 0.039166754595484674 -0.12600814507629696 -0.13492614648709528 
0.096467223038190747 -0.068901163381463709 -0.38927880629529138 0.02178059865578974 
-0.15549633538175672 0.19519431711424359 0 0 
0.094031356912973665 -0.052911682535377411 -0.21789643551010218 0.16584896351452727 
0.49147597959879263 -0.40984401731775888 -0.098131684572576927 -0.23573290774572014 
0.045465267195696032 0.00027917839708377964 -0.19789702266434653 0.027329357719583315 
0.16611155783363576 -0.10438840114354349 0 -0.080443903177987094 
0.053570526279877434 -0.1043884011435435 0.095138569700285419 -0.16549502994331894 
0.067492279281380033 -0.21577180677286309 -0.0060458662634346383 0.41320194853793446 
0.16611155783363576 -0.10438840114354349 0 -0.080443903177987094 
0.16611155783363576 -0.10438840114354349 0 -0.080443903177987094 
-0.20254349498999422 -0.098353400691499421 -0.00019412161642392168 0.033412692687719965 
0.032828359059840356 -0.51169722426180964 -0.050892365678298676 0.54258479186165487 
-0.2049802224141484 -0.078820800539905672 0.36234377521027766 -0.19960850953775031 
0.30938417439856508 0.030349513754920759 0.027641724245987785 -0.28175938266253342 
-0.25550891123153185 0.24513531642744441 -0.059873227265256464 0.0050531518878091965 
-0.0041117518267632762 -0.011633986161117632 -0.31536220383806246 -0.0084096295128450061 
-0.20758017996219014 0.023247806657945465 0.15958554849566955 0.2834256109909743 
-0.15567315716616115 -0.0084785816210191725 0 0.33212774587028748 
-0.15567315716616115 -0.0084785816210191725 0 0.33212774587028748 
-0.15567315716616115 -0.22013194354327908 -0.036237956197119961 0.39341076448654771 
-0.15567315716616115 -0.0084785816210191725 0 0.33212774587028748 
0.071447934347955613 -0.14312790408916512 -0.095242248575009805 0.20515962188751868 
0.026780474389819668 0 0 0 
-0.34555995474611412 0.18863146295722061 -0.053591836979787505 0.24094822917472924 
0.026780474389819668 0 0 0 
-0.12094400486267161 -0.032520871637619707 -0.32079438148311384 -0.075702727539452799 
0.026780474389819668 0 0 0 
-0.028795492052836463 0.19904865356678625 0.1648754381274013 -0.065038425138397138 
0.026780474389819668 0 0 0 
0.026780474389819668 0 0 0 
0.026780474389819668 0 0 0 
0.026780474389819668 0 0 0 
0.026780474389819668 0 0 0 
0.3431811947777606 -0.10230761434882123 0 -0.2581325900961392 
-0.19969230268708152 0.10277319640140124 -0.029842283723471162 -0.035878707605994327 
0.3431811947777606 -0.10230761434882123 0 -0.2581325900961392 
0.3431811947777606 -0.10230761434882123 0 -0.2581325900961392 
0.050779530552993363 -0.061952623246015748 -0.038644963701421509 0.048454134432574257 
0.3431811947777606 -0.15508632619182935 -0.0077515774811663029 -0.2581325900961392 
0.44288346556864355 -0.44005015112878398 -0.09914816134284625 -0.089549394573701604 
0 0 0 0 
0.35248216028927132 -0.37412226461984677 -0.08268208463548099 -0.075852610718967414 
0 0 0 0 
0 0 0 0 
0 0 0 0 
0 0 0 0 
-0.12456528338218198 0.074164718385848025 -0.019138594130481672 0.063932085353916993 
-0.18684167442457239 0.193971194196323 -0.15908276303248597 -0.12529036844609417 
-0.34721733738184946 0.18317333395521818 0.39639519616141189 -0.15086173490082949 
0 0.028491182182442343 0 0 
0 0.13885002407927538 -0.010251496508151766 -0.11936107559269997 
0 0.0051365685602561785 0 0 
-0.27433503416850236 0.032423586118518366 -0.041257698375649736 -0.0010371301146606636 
-0.11632641957624419 -0.063730594464030427 -0.029382691244293841 0.048326629571492183 
0 0.0051365685602561785 0 0 
0 0.0051365685602561785 0 0 
0 0.0051365685602561785 0 0 
-0.20305855963460784 0.2846533538515692 -0.0099742957745899957 -0.00010665236679329343 
0.230849543520731 -0.20967994549988725 -0.178694817614996 -0.049935523032408877 
-0.09960974199471867 -0.154177503451427 -0.019761272772824877 0.41755629731929217 
-0.063037409505789524 0.12410739530712617 0 0 
-0.14645463684380261 0.11449642943357209 0.26690684574172135 -0.14232217609384568 
-0.063037409505789524 0.12410739530712617 0 0 
-0.063037409505789524 0.12410739530712617 0 0 
-0.27081387262196144 -0.18494739051192763 0.3027031829423743 -0.27645594500177378 
-0.063037409505789524 0.12410739530712617 0 0 
-0.36569613172638188 0.28456523355268681 -0.14317276116427799 0.182343403917096 
-0.063037409505789524 0.2352331875664978 -0.0018998157099141741 0 
0.060546081591297436 0.16426568703706834 0 -0.032710954930746501 
-0.063037409505789524 0.12410739530712617 0 0 
0 0 0 0 
0 0 0 0 
0.31693167785218279 -0.11448747163861081 -0.21773875843066312 -0.034284583755687492 
0.19112850493300154 -0.098172614706811462 -0.015700927001608276 -0.082295151726731644 
0.16182280072819091 -0.13498374861902307 0.027220647641412587 -0.094686818153764896 
-0.0072561464124165833 -0.22947155952526568 -0.085691701879988272 0.10524691357571857 
0 0 0 0 
-0.17394437605046853 -0.066871467800391549 0.084391027673694788 0.21587700295173709 
-0.29498333901724716 -0.26488692888407739 -0.065641346559730321 0.53973123580325344 
-0.033071598505443528 0.038945347488601116 -1.7347234759768071e-18 -0.0020158864972762863 
0 -0.21165336192225989 -0.036237956197119961 0.06128301861626051 
-0.029251991498762012 0.12260517005698338 0 -0.04101307460292701 
0 0 0 0 
-0.037386959280975879 -0.024576819891353845 -0.21900322905878147 0.024924163516996063 
-0.24291761344975721 -0.050855778336935269 -0.011232727967558859 0.2014760315603002 
-0.23337706977268671 0.11600030423304721 -0.28194858567420622 0.39634876696995147 
-0.093673586781308396 0 0 0 
-0.23704929796359531 0.19727216610277731 -0.17087021290184082 -0.12157166790669402 
-0.30787148997958136 0.56425657874843405 -0.11019417144473993 -0.33971549766289827 
0.28322350454312367 -0.17684004200821127 -0.15605754182541018 0 
-0.17569359019067271 0.29856159830989526 -0.094804362753279456 -0.043774457432797745 
-0.25936012865010022 0.19440969854183499 0 -0.04230453232319667 
-0.093673586781308396 -0.041920270774872134 0.091114359929041794 -0.051843774275672688 
0 0.13565158745398498 0 -0.074806109480495098 
-0.14095044279936364 0.29733283145329054 0 -0.074806109480495098 
0.037947315854550336 0.10614371121729321 0 -0.14703842806324757 
0 0.13565158745398498 0 -0.074806109480495098 
-0.4379011799774587 0.31143483367722935 -0.066245850896042666 -0.13633268473428911 
-0.28488105322254986 0.42004827341265655 -0.13246490746160888 0.029737923535831646 
-0.47029549693350614 -0.22780492563705712 0.4466415701693513 0.34576456595352512 
0 0.13565158745398498 0 -0.074806109480495098 
0 0.13565158745398498 0 -0.074806109480495098 
0.10130573357614918 -0.04476114897159536 -0.11544664389237912 0.098173017227215775 
-0.057392667043475981 -0.16807076522822131 0.1831056261632531 0.077873716849989144 
0.21592866844043113 0 0 -0.14408756602633271 
-0.033825762655964445 0.16222887410876022 0.0020737895656810224 -0.13811425051149526 
-0.1451867693876468 0.020451450974758676 0.012428335651213644 -0.16970157707256459 
0.14567864192408575 -0.10533784956773666 -0.051156342898266899 -0.000407986304716626 
0.038049242273850876 -0.17603172849566162 -0.021015982465251538 0.19760375362332361 
-0.4331078064026655 -0.34563548370876118 -0.47058823529411764 0.36747901203530048 
0.21592866844043113 0 0 -0.14408756602633271 
0.21592866844043113 0 0 -0.14408756602633271 
0.31400788767834598 -0.13012985470751726 0 -0.15097934188245488 
0.33115847908356666 -0.27822191470807167 -0.027617941178959056 -0.27664519428785778 
0.21592866844043113 0 0 -0.14408756602633271 
1.7347234759768071e-18 -0.09379664513441334 -0.020910664548513577 0.13399421290079438 
0.19167911340489935 -0.24019087935217018 -0.11160276811896794 0.11935040348367321 
0.098023321928763202 -0.29757854127013966 0.069690209389927107 -0.12234207952949309 
0 -0.09379664513441334 -0.020910664548513577 0.20963303415506748 
0 -0.09379664513441334 -0.020910664548513577 0.20963303415506748 
-0.39530161714243994 0.27862587539292827 0.016769666998508671 -0.14938727388845988 
0 -0.09379664513441334 -0.020910664548513577 0.20963303415506748 
0 -0.09379664513441334 -0.020910664548513577 0.20963303415506748 
0 -0.09379664513441334 -0.020910664548513577 0.20963303415506748 
0 -0.09379664513441334 -0.020910664548513577 0.20963303415506748 
-0.38800493048098783 0.38493217654652068 0.19018038844238339 -0.30576355487076662 
-0.18092385371290162 0.17676502093699439 0.053609891909799728 -0.15106299677738322 
-0.034441461795094337 -0.17809627067809325 0 0.21357886402064127 
-0.13572073733250142 -0.12885419775904786 -0.010989024259178999 0.27208634020173905 
-0.034441461795094337 -0.17809627067809325 0 0.21357886402064127 
0.14338231181463382 0.1577321423555427 -0.27545701434728831 -0.013120029383617293 
-0.034441461795094337 -0.13045338711147178 -0.011009672916066891 0.18971140029310576 
-0.034441461795094337 -0.31188080489859038 0.17765243561052915 0.014859270884395426 
-0.32305073508820648 0.41042519666924132 0 0.070604751630630014 
-0.034441461795094337 -0.17809627067809325 0 0.21357886402064127 
-0.034441461795094337 -0.17809627067809325 0 0.21357886402064127 
-0.034441461795094337 -0.17809627067809325 0 0.21357886402064127 
-0.37260035931206353 0.35841940453538873 -0.017710575076713208 0.17701049127778318 
-0.040093074001523156 -0.0397914743008142 -0.068613510774161834 0.13116737913233545 
0 0.059031817794751841 0 -0.015049926197439724 
-0.072801549004695015 0.23144179707638252 -0.070491697720635807 0.0099161491271769989 
-0.2452554905495202 0.40213652623864471 -0.045823725017243896 -0.24083364545105659 
-0.049786185990977033 0.084287937174914535 0.045827833675049917 -0.15492108863870807 
-0.060429947991668481 0.15396585914023758 0 -0.015049926197439717 
0.056255552252896225 -0.02262120895709032 -0.19563022980324102 -0.041312305443162112 
0 0.059031817794751841 0 -0.015049926197439724 
-0.41732952740682427 0.27030817475630836 0 0.30495716391614991 
0.083133751806332506 -0.097314751770165672 0 0 
0.083133751806332506 -0.097314751770165672 0 0 
-0.11693872565121841 0.066294256861308937 -0.066302421019216448 -0.12296624821676205 
0.083133751806332506 -0.097314751770165672 0 0 
-0.14413317549928775 0.10470613704024753 0 0 
0.083133751806332506 -0.097314751770165672 0 0 
-0.24649287510186077 0.11120436504751442 0 0.34983723719363968 
-0.028373616357551507 0.036394344010290812 -0.0015139366505575085 -0.041945249916233163 
0.07291925534326299 0.18460312118692609 -0.30940338649162263 -0.41845270570448811 
0.11288494040871405 -0.20572643225030712 0 0.084491881443561997 
-0.028373616357551507 -0.14752178824115741 0 0.10232815674624561 
-0.028373616357551507 -0.14752178824115741 0 0.10232815674624561 
-0.028373616357551507 -0.31945545040920398 -0.11544664389237912 0.344588739999794 
-0.11135892841741724 0.049995625428005508 -0.39945468335835876 0.067440857133307192 
-0.17526040140750451 0.02887603403324164 -0.1551054044193772 0.38851746910628671 
-0.28437572152429935 0.33295843158121063 -0.067580796312343816 -0.052414678453369772 
-0.028373616357551507 -0.14752178824115741 0 0.10232815674624561 
-0.27936310000488968 -0.041899707048986545 -0.44730828171880149 0.25013674037519618 
0.16513758675270512 -0.26305942912671026 0.12323130908122473 -0.0071525928558418272 
-0.17019335357427831 -0.15862893420211061 0.14110285519707158 -0.097850458487468858 
-0.028373616357551507 -0.085942939874706165 0 0.020288659023923752 
-0.028373616357551507 -0.14752178824115741 0 0.10232815674624561 
-0.22726692730562001 0.20202088881041322 0 0 
0.19517116547262639 0.016198151088461309 -0.26667982239273136 -0.39941461375437515 
-0.22726692730562001 0.20202088881041322 0 0 
0.078816995672396001 -0.060261510346923335 0 -0.025276162592145331 
-0.22726692730562001 0.20202088881041322 0 0 
-0.20044637732685083 -0.082698988504564724 0.52712763268236529 -0.36783868834369071 
0.020855430568370682 -0.047803907454183385 -0.10549855498503871 0.030134044719834569 
0.33665476044741793 -0.16368814610590787 -0.18193172173025585 -0.11376227031406207 
-0.14752740233195286 0.086998115678565538 -0.20846631112263198 -0.06163873338339567 
-0.22726692730562001 0.20202088881041322 0 0 
-0.076194490362625614 -0.15799787228187898 0.164608635681047 0.077262116913188947 
-0.033546363441577194 -0.15799787228187898 0 0.15481734087998525 
-0.033546363441577194 -0.15799787228187898 0 0.15481734087998525 
-0.029171554649184764 -0.061831069412891113 0 0.15360554222376357 
-0.10955504411479261 -0.16174085499438856 -0.097662654342619254 0.43552611108442363 
-0.033546363441577194 -0.15799787228187898 0 0.15481734087998525 
-0.42538124476977018 0.38784564528607535 -0.10852903595797007 0.15156678084910788 
-0.033546363441577201 -0.11689788843797538 0 0.11837662949343231 
-0.033546363441577194 -0.15799787228187898 0 0.15481734087998525 
-0.085936733090020451 0.18598947216459691 0 0 
-0.085936733090020451 0.18598947216459691 0 0 
-0.27761671754273576 -0.081130774593697705 0.28667877413647253 -0.16848624413186214 
0.20568091720548115 -0.047649753989657408 0.21593076073383369 -0.21942544182181381 
-0.085936733090020451 0.18598947216459691 0 0 
-0.085936733090020451 0.18598947216459691 0 0 
0.21813603945628543 -0.13748587057165906 0 -0.042416805502539623 
0.21813603945628543 -0.13748587057165906 0 -0.042416805502539623 
0.15601671444560544 -0.13383349396576771 -0.088796263559187918 0.15086045243059465 
0.21813603945628543 -0.13748587057165906 0 -0.042416805502539623 
0.022357548102104802 -0.204384771555882 0 0.20914894814094603 
0.33268254891609406 -0.43722100622303217 -0.23398118682094279 0.2247852089393875 
0.22332287886205351 -0.13748587057165904 -0.029842283723471162 -0.10790196805587256 
-0.086872864648214213 0.079490818920498002 -0.24043197995509658 0.23720328660427548 
0.21813603945628543 -0.13748587057165906 0 -0.042416805502539623 
0.3684562983210507 -0.27538878685136581 -0.12943619539563339 -0.24969653912153578 
-0.20825846398941505 0.20521888439902869 -0.011323807130292438 -0.25913386767559776 
0.14387290542727399 -0.15792410141229501 0 0 
0.14387290542727399 -0.15792410141229501 0 0 
-0.10997618155465566 0.14984604272759483 -0.014754090407293863 -0.0056039717137228336 
0.14387290542727399 -0.15792410141229501 0 0 
0.35688320755049241 -0.43528022022579727 0 -0.030712282994966297 
0.14387290542727399 -0.15792410141229501 0 0 
0.12354176080969176 0.077124827059692896 -0.048064231575115572 -0.3396923013165859 
-0.12774047915081088 0.036144958720160769 0.07380948985350301 0.20374135642264724 
-0.18952439547790823 -0.085157966722400905 -0.066301808992681191 -0.086426480106493425 
-0.49041534033582579 0.38047433083556542 0 0 
-0.49041534033582579 0.38047433083556542 0 0 
-0.18849152224443588 0.10312675744159297 0.087697504286348746 0 
-0.024729911096673753 0 0 0 
0.090434857051572878 -0.010890691092514934 -0.041667630053342682 -0.084814202441604272 
-0.12641589922836949 0.20517718568171567 -0.023741281158519902 -0.15726934745530027 
0.074998622235491641 0.25776563785360729 0.0021769002056858423 -0.4317781114695517 
-0.061611171315385592 0 0.084515360688582425 0 
0.34112500407058371 -0.045318856670067201 -0.20049175017718351 0.10139597900577038 
-0.33783360202247581 0.31999170924429088 -0.12802553549184717 -0.061907915272774491 
-0.024729911096673753 0 0 0 
-0.058191006313324412 -0.071639854407505019 -0.027402914860875448 0.23413299900624038 
-0.51098061017801177 0.27227415067987121 0.041298739804810886 -0.60744843636843204 
-0.11818645082660904 0.047279117188776559 -0.26027582397492066 0.038482891489321984 
-0.024729911096673753 0 0 0 
-0.024729911096673753 0 0 0 
0.24139456208230334 -0.060416969433033485 -0.1485093673230759 -0.11817394672189568 
0.062799710933173492 -0.029813338678493038 0 0 
0.062799710933173492 -0.029813338678493038 0 0 
-0.12703218418053969 -0.14434749461849752 0.19804422273008571 0.1276675143647133 
-0.093051691248111565 0.074871272314166265 0.073288460942019448 -0.10281687849794405 
0.062799710933173492 -0.029813338678493038 0 0 
0.068407972613027807 -0.029813338678493038 0 0 
-0.28898549726674494 0.065271692195634251 -0.0007813442676671931 -0.14776604046041888 
0.062799710933173492 -0.029813338678493038 0 0 
0.27514051187105648 -0.08321538500269865 -0.206671041680001 -0.16755576349024093 
0.062799710933173492 -0.029813338678493038 0 0 
0.145911516708987 -0.2533267458126085 -0.043503074541367245 0.1466821399152598 
0.29068497820308681 -0.29887204775491621 -0.0099028319882197586 -0.0971248265987327 
0.055160146878572208 -0.012824864004260264 1.0842021724855044e-19 -0.096065924518508761 
0.020971518764999281 0.094635755745445319 -0.074999354120409992 -0.048176203249696598 
0.21301030212321909 -0.27735611881350236 0 -0.030712282994966297 
0.21301030212321909 -0.27735611881350236 0 -0.030712282994966297 
0.083396794957245196 -0.03915470483759563 0 -0.0092146010690423961 
0.40164082405650292 -0.43702174230677354 -0.080172802037320329 -0.19220251400634222 
0.083396794957245196 -0.03915470483759563 0 -0.0092146010690423961 
0.083396794957245196 -0.03915470483759563 0 -0.0092146010690423961 
0.083396794957245196 -0.03915470483759563 0 -0.0092146010690423961 
0.083396794957245196 -0.03915470483759563 0 -0.0092146010690423961 
0.083396794957245196 -0.03915470483759563 0 -0.0092146010690423961 
0.083396794957245196 -0.03915470483759563 0 -0.0092146010690423961 
-0.11497971027723851 0.11086226698813693 0 -0.020318949682077366 
-0.11497971027723851 0.11086226698813693 0 -0.020318949682077366 
0.060368092870002457 0.07974775152484688 -0.011557091683887003 -0.092205662658603485 
-0.11497971027723851 0.11086226698813693 0 -0.020318949682077366 
-0.11497971027723851 0.11086226698813693 0 -0.020318949682077366 
-0.11497971027723851 0.11086226698813693 0 -0.020318949682077366 
-0.11497971027723851 0.11086226698813693 0 -0.043862919524451857 
-0.11028118358856362 -0.034700703829101703 -0.046043181584950875 0.10835220909627602 
-0.11497971027723851 0.11086226698813693 0 -0.020318949682077366 
-0.11497971027723851 0.11086226698813693 0 -0.020318949682077366 
-0.19774444202648378 -0.11624738191384471 -0.25985494395257802 0.54349069982260145 
-0.11497971027723851 0.11086226698813693 0 -0.020318949682077366 
-0.098556042155028833 -0.11627816031135363 0.34690783850413959 0.084985161281356525 
0.10244488233931849 0.17876874869660919 -0.11868880081816943 -0.255372397552389 
0.045349249345084365 -0.16662020973143149 0.24025223189883282 -0.035577397590677226 
0.2683516401360948 -0.16586824227038266 -0.094991060948992428 -0.011158890544188012 
-0.19507735549985675 0.094131927063980034 0.095451814626139775 0.0071507564178074903 
0.11469922264922872 0.037515635396563066 -0.16354619364678885 0.086468071617796224 
0.07515477937435347 -0.076274207437948521 0 0 
0.07515477937435347 -0.076274207437948521 0 0 
0.07515477937435347 -0.076274207437948521 0 0 
0 0.056526506845738143 0 -0.14029360642873406 
0 0.056526506845738143 0 -0.14029360642873406 
-0.38135491251343423 0.2067942693735409 -0.061465100095965883 0.3840498768526609 
0.015653085983804146 0.08614338814475006 -0.091541931837820181 -0.14029360642873404 
0 0.056526506845738143 0 -0.14029360642873406 
-0.15456789546639996 0.20895396885046733 0 -0.14029360642873406 
-0.20561193807189188 -0.3842144713835875 -0.35264298494010027 0.76882968116079065 
0 0.096405863223821317 0 -0.19467610824531562 
0 0.056526506845738143 0 -0.14029360642873406 
0 0.056526506845738143 0 -0.14029360642873406 
0.096662768659236883 -0.15361065303375435 0 0 
0.2197919720978973 -0.19141528523260418 0 -0.062766168375062381 
0.24533852199072603 -0.082379165161048692 -0.10160908803612098 -0.0032384474832970883 
0.096662768659236883 -0.15361065303375435 0 0 
0.096662768659236883 -0.15361065303375435 0 0 
0.096662768659236883 -0.15361065303375435 0 0 
0 -0.04138169080571958 0 0.23599069187765767 
-0.053725763887417649 0.083942110136464937 -0.10783266206476529 0.13833218308371367 
0.054208883698178036 -0.29029368343301382 0.19568958796643199 0.090405538230145951 
-0.31450282309414157 -0.16967475937232468 0.33629203277195907 -0.29706009714917198 
7.1557343384043293e-18 0.048403570147906076 0 0.2359906918776577 
0 -0.04138169080571958 0 0.23599069187765767 
0 -0.04138169080571958 0 0.23599069187765767 
0 -0.04138169080571958 0 0.23599069187765767 
0.064361226657047715 -0.35632490110081749 0.27544873993520075 0.10527533229497188 
0 -0.04138169080571958 0 0.23599069187765767 
-0.018026673523167558 0.047235344584147715 0 -0.0085189351665339291 
-0.034918832879239921 0.082012442113630998 -0.033019867768278907 -0.051172456601668942 
-0.068405746070404866 -0.10584943537205002 -0.16596681619001397 0.11525564127211939 
-0.06840574607040488 0.12586501773185851 0 -3.4694469519536142e-18 
-0.068405746070404866 0.12586501773185851 0 0 
-0.068405746070404866 0.12586501773185851 0 0 
-0.30997109535972789 0.19117571650498574 -0.0058067199021843889 0.15734306955496677 
-0.068405746070404866 0.12586501773185851 0 0 
-0.068405746070404866 0.25476693949725121 0 0 
-0.15895759761710618 -0.1333364099860252 0.28936563135312465 -0.13482831804709511 
-0.032274358209128128 0.19503462718862041 -0.035593643005882886 -0.1262318605813276 
-0.10706037642873116 -0.097993762816600966 -0.041303287781165876 0.012777664853884024 
-0.49177433833157524 0.19177319394695083 -0.22895132816864219 0.30305502033259551 
0 -0.047638681013090052 0.21178562123549075 -0.18076801266346007 
-0.02842643335034396 0.16610462019951217 0.019707354875404037 -0.20404685768289621 
-0.60929496095294144 0.33591401262720766 -0.2628495328045054 0.12270132110082728 
-0.2445234616927226 0.035856799645895297 0.086685243293554509 -0.042552382092780457 
0.080053458850213144 0.15817195151818608 -0.017234175582910995 -0.24241053909377838 
-3.4694469519536142e-18 -0.19742220329858409 -0.035593643005882886 0.15322701275320544 
0 0.0005367090153811354 -0.035593643005882886 -0.025596256304608472 
-0.027897001018931222 -0.034954427382133509 -0.24295698775322172 0.16818287342966892 
-0.15384603096291766 -0.1158755003903188 0 0.087670805913363625 
0.088991243193919559 -0.39496153463024791 0 0.14436300654776918 
-0.36480138076747626 -0.13001119051382351 0 0.22836223409662615 
-0.10432736316419715 -0.12159994793437627 0.057853930036435276 -0.13234773578205297 
0.24581727642778645 -0.0073832421649104897 -0.56086830914727148 0.013555079296010198 
-0.094107204986196111 0.17782267970957247 -0.06202445600139421 -0.06871759689177119 
0.27220782192890491 -0.26128306977800375 -0.021166227340079571 -0.12880587144574648 
0.27220782192890491 -0.26128306977800375 -0.021166227340079571 -0.12880587144574648 
-0.21261102080417502 0 0 0.26540282373859253 
0.0093930074756422149 -0.096348606057059291 0 0.14382782350858467 
-0.21261102080417502 0 0 0.26540282373859253 
-0.21261102080417502 0.027937833312290512 0 0.19317050515583961 
0.3376919001525307 -0.60281479033094088 -0.11779142946879559 0.22711026209914503 
-0.21261102080417502 0 0 0.26540282373859253 
-0.21261102080417502 0 0 0.26540282373859253 
0.018979577560669508 -0.20314222650563962 0 0.22127164237490557 
-0.21261102080417502 0 0 0.26540282373859253 
-0.078891212820987128 0.15434493195485569 0 0 
-0.14406642250142798 0.04112460826882651 -0.030196778561194522 0.21909405699518403 
-0.078891212820987128 0.15434493195485569 0 0 
-0.078891212820987128 0.15434493195485569 0 0 
-0.18908619316053224 0.30485317212079993 0.02682555477185998 -0.35064341756339423 
0.0029715634618540342 0.089555162834313154 0.084515360688582467 -0.047791865899470612 
-0.097366042587222229 -0.013341948215616553 0.16544126540341036 -0.011206048786216821 
-0.078891212820987128 0.15434493195485569 0 0 
-0.11165508568101955 -0.4176276002642394 0.37087400939332082 -0.38851065842716592 
0.13057642244205198 0.11874778140971504 -0.21481032013190765 -0.23992516463536506 
-0.080511863747479179 0.17665910353831052 0 -0.091223952373051045 
0.25144517462513594 -0.070854133395597332 0 -0.11927392674594259 
0.061492494175276448 -0.065821513678029991 0 0 
-0.12278558062266987 0.15899366920602531 0 -0.001564970323142908 
0.19966155621770074 -0.11067311228411815 -0.22915333944286281 -0.032721245173390208 
0.2305434267174708 -0.39442555651375277 -0.15716965780313322 0.087262598713920572 
0.020736548974446704 0.026148949104321743 -0.21570800465103088 -0.055628164303394893 
0.1314483411767107 -0.36187154337106858 0 0.32021571849158464 
0.061492494175276448 -0.065821513678029991 0 0 
0.058419312988345316 0.15982631634637212 -0.053847763559933252 -0.3658439182186175 
0.061492494175276448 -0.065821513678029991 0 0 
0.061492494175276448 -0.065821513678029991 0 0 
-0.092868968289887777 0.16676099069802874 0 -0.13762861714415636 
0.015278022173446091 0.14475324761395567 -0.045224521529261368 -0.12951363884541933 
-0.27179258519250121 0.2058570221904456 0 -0.062101650193567025 
-0.27179258519250121 0.2058570221904456 0 -0.062101650193567025 
-0.27179258519250121 0.2058570221904456 0 -0.062101650193567025 
-0.27179258519250121 0.2058570221904456 0 -0.062101650193567025 
0 0.30055599120602583 -0.10160908803612098 0 
0 0.30055599120602583 -0.10160908803612098 0 
0.17945942536462842 -0.15341599056542687 -0.20454154180706874 0.17435723295957328 
0 0.30055599120602583 -0.10160908803612098 0 
0 0.30055599120602583 -0.10160908803612098 0 
-0.25678697774618625 0.011009556015627642 0.11036369718688722 -0.14755060317449192 
-0.31920098991403162 0.29038778724509989 -0.18655363833328859 0.33968643669967336 
0.10990829823048799 -0.10954489854305992 0 0 
0.05780831343103808 -0.13914524088957736 0.32829283017329935 -0.089614325807143902 
-0.11581310109164429 -0.056495797477813581 -0.055123198144550849 0.044193355900896049 
0.42013192090661422 -0.6054375770595789 -0.1404201193855168 0.094086896182213289 
0.10990829823048799 -0.10954489854305992 0 0 
0.04947835023881951 -0.014610857197574267 0 -3.0357660829594124e-18 
0.036755907859915671 0.32810880301863532 -0.26050144862562341 -0.28069460051470002 
-0.0068758891243420606 -0.10954539445107012 0 -0.045785221832789033 
-0.03928981296182258 -0.18636497599227672 0 0.19315391453793854 
0.012675604630603535 -0.25602600905286976 0 0.19315391453793851 
-0.03928981296182258 -0.18636497599227672 0 0.19315391453793854 
-0.03928981296182258 -0.18636497599227672 0 0.19315391453793854 
-0.03928981296182258 -0.18636497599227672 0 0.19315391453793854 
-0.03928981296182258 -0.18636497599227672 0 0.19315391453793854 
-0.2292910760633762 0.047330914177226839 0 0.16590309742337908 
0.068823386486656465 0.080299210789664441 -0.26842773373547091 -0.10154384531509292 
-0.11587696974417361 0.020127788060873737 0.26497982679338722 -0.13659726501012365 
-0.070990852181993094 0.010512542530623259 -0.0086175475671942964 0.033197260960152443 
-0.034556704274030001 0.11523231569018286 0 -0.0031208759789679635 
-0.034556704274030001 0.11523231569018286 0 -0.0031208759789679635 
-0.04100700491974018 0.083866048060034074 0.13886085432185979 -0.0031208759789679635 
-0.034556704274030001 0.11523231569018286 0 -0.0031208759789679635 
-0.034556704274030001 0.11523231569018286 0 -0.0031208759789679635 
-0.034556704274030001 0.11523231569018286 0 -0.0031208759789679635 
-0.034556704274030001 0.11523231569018287 -0.0053024584442481464 -0.0031208759789679635 
-0.034556704274030001 0.11523231569018286 0 -0.0031208759789679635 
-0.034556704274030001 0.11523231569018286 0 -0.0031208759789679635 
-0.16876176965707829 0.056471342623031821 -0.017710575076713208 0.31328475162503922 
-0.17246703267753966 0.202214904792268 -0.019472293923212588 0.094645689628187313 
0.35379754407630343 0.039624624439059661 -0.1803818265036482 -0.30821272587151038 
-0.10343185282024711 -0.16066802759516141 0 0.21186739872761129 
-0.12732124643607973 -0.081376761269299505 0 0.21186739872761129 
-0.20627188116935752 -0.20764186275424129 0 0.26700510252988219 
0.34503627467011533 -0.18131916694403694 -0.37237448550445712 -0.14918163184442695 
0.0070973396979987372 -0.027577676042841268 0.24689518159723078 -0.49060279917533384 
-0.21895043239831555 0.13195745021381644 -0.057434479719828832 0.028841473259726164 
0.01373814291899407 -0.039537772175184629 -1.7347234759768071e-18 -0.049612879258207128 
0.079077377998668333 -0.14471023154463816 0.070174750083153423 -0.037850110982342741 
-0.14502149829495689 0.054245427757413256 0 0 
-0.14502149829495689 0.054245427757413256 0 0 
-0.14502149829495689 0.054245427757413256 0 0 
-0.041032216749012952 0.14296772723919815 -0.11779142946879559 -0.43455297542350763 
0.14891433688051045 -0.30568100226732131 -0.059035802110650973 -0.051339990345677565 
-0.2695791643215007 0.15850497051022516 -0.095825122654771638 0.26953164350283121 
-0.14502149829495689 0.054245427757413256 0 0 
0 0.09869662151679047 0 -0.090713001458673601 
0 0.35011401539511516 -0.070882709345868142 -0.27099520656055742 
-0.09084829751306786 0.16923418539626489 -0.42021250259986831 0.23553007367770856 
0.0097283993691107216 0.1688182938213986 -0.0072215571603878878 -0.157517288118703 
-0.0030244541847164364 0.09869662151679047 0 -0.090713001458673601 
0 0.09869662151679047 0 -0.090713001458673601 
-0.029532944837482505 -0.0022060234223913733 0.029499153001295859 0.2450099173086526 
-0.34074365046167959 -0.38572893042993256 0.1545892950335907 0.42872278055106722 
-0.14398816998343789 -0.080950291792831655 0.37095147360914438 -0.25271965989018763 
-0.055541158359135361 0.10451942971957555 0 -0.11234845734179782 
-0.055541158359135361 0.10451942971957555 0 -0.11234845734179782 
-0.055541158359135361 0.10451942971957555 0 -0.11234845734179782 
-0.055541158359135361 0.10451942971957555 0 -0.11234845734179782 
-0.055541158359135361 0.10451942971957555 0 -0.11234845734179782 
-0.055541158359135361 0.10451942971957555 0 -0.11234845734179782 
-0.084459999127431337 0.22380951262729479 0 -0.11234845734179782 
-0.40314181456963172 0.14763365337308224 -0.013842532796069583 0.17672123993276478 
-0.055541158359135361 0.10451942971957555 0 -0.11234845734179782 
-0.11062970045233525 -0.10050718865732264 -0.067705771606092396 0.21840546940708172 
-0.18793798774588216 0.21463725610489315 -0.00080469579002926631 0 
-0.079105005844798529 0.08197844507893938 0 0 
0.038098629841894514 0.019471294546897722 -0.1936786050739156 -0.22875833813398233 
-0.079105005844798529 0.08197844507893938 0 0 
-0.24575206012995082 0.19960884642796789 0.045413415141362413 -0.097331693729606289 
-0.079105005844798529 0.08197844507893938 0 0 
-0.079105005844798529 0.08197844507893938 0 0 
0.081505481265881113 -0.069637361180123536 0 0 
-0.14932347441485033 0.066442093150674189 -0.20450588199542996 0.11179139689853483 
0.12481573583356269 -0.06963736118012355 0 -0.021892208598187305 
0.081505481265881113 -0.069637361180123536 0 0 
0.25017550787652787 -0.2874754587950008 -0.042104012631965677 -0.044846566798377598 
0.13388792671037436 -0.10197282881979736 0 -1.7347234759768071e-18 
0.21147987972533 -0.10410742380874419 0 -0.082026583668331488 
0.081505481265881113 -0.069637361180123536 0 0 
0.019916017778229933 0.024252386613673352 -0.08604310192003059 -0.014920268872447811 
-0.19349888648564717 -0.3246500309354185 0.21666587376676172 0.17597217073933474 
-0.089801948955925956 -0.21671626369637598 0.18082690195462603 0.062155653781492348 
-0.15481446290046974 -0.034352147912964009 -0.4410827362587727 0.09312370804249584 
0 0.18299606568497659 -0.048451861196195864 -0.12811877168416974 
0 0.084072656387008921 -0.030399425802871909 0 
0 0.084072656387008921 -0.030399425802871909 0 
0 0.084072656387008921 -0.030399425802871909 0 
0 0.19530825902979662 -0.041956517486758937 -0.052049051715471494 
0 0.084072656387008921 -0.030399425802871909 0 
-0.30404914246567505 0.10580761478669554 0.22162734264405093 -0.15047987521213699 
0 0.084072656387008921 -0.030399425802871909 0 
0 0.084072656387008921 -0.030399425802871909 0 
-0.34135726085667939 0.086913167635391961 0.2468795573435473 -0.18622662309488702 
-0.25004009384236991 0.28656221499755508 0 0 
-0.25004009384236991 0.28656221499755508 0 0 
-0.25004009384236991 0.28656221499755508 0 0 
0.13892743999801854 -0.10594297346444598 -0.031834126378144839 -0.021804690512131623 
0.22738822168372455 -0.5173702785035762 -0.20194980793345244 0.02706931419241455 
-0.13927462414878025 0.24628329050556916 -0.019394270854815189 -0.11894548060190863 
0.04158701940562709 -0.0015707492945908844 -0.02013475686082131 -0.13635077248655134 
-0.25004009384236991 0.28656221499755508 0 0 
-0.25004009384236991 0.28656221499755508 0 0 
0.19997140315786499 -0.34413993214804472 -0.077041834360216555 -0.016225815800158479 
0.25928872683275606 -0.26528326957668186 0 -0.18403748077762536 
-0.070100043596476661 -0.011081455904834836 0 -0.022422613993315434 
0.092830116728874673 0.044240806654874412 -0.026128414496113275 -0.12731397863830324 
0.13323013765884018 -0.117367920942913 0 -0.18403748077762538 
-0.17556665521620424 -0.025959495165325523 0.047968797032034438 0.19273869984712499 
0 -0.28101381296449984 -0.06530694231825708 0.36153352817647544 
-0.42216194581835148 0.060392502231023742 -0.04142556001067501 0.17490546206981183 
-0.16259435602766761 -0.07261520966790147 0.21813822548797893 -0.20558217642847171 
0 -0.28101381296449984 -0.06530694231825708 0.36153352817647544 
0.011267342942644892 0.07434883429978828 0.10969306253437792 -0.10410616952392923 
0.43618749437069326 -0.19707646411818988 -0.10674085256832401 -0.082397183469160223 
0.43618749437069326 -0.19707646411818988 -0.10674085256832401 -0.082397183469160223 
0.43618749437069326 -0.19707646411818988 -0.10674085256832401 -0.082397183469160223 
0.084282361695556515 0.26115522802360086 -0.10674085256832402 -0.1963840243541371 
0.078791390852224696 -0.15496038840948459 0.31489178240317411 -0.052250013979291118 
0.12353032463982375 0.1813492556489546 -0.21348880464660247 -0.18384053307826492 
0.35503668167017771 0.15516519092936534 -0.106740852568324 -0.24803300198548622 
0.34383893547714667 -0.19430072868879569 -0.10674085256832401 0.19548817819983327 
-0.13624585883607365 0.014812223601662483 0 0.20369546510015538 
0.056133355130433389 -0.17185774027744077 -0.094706130165275557 -0.023337108278961544 
-0.064400070729838929 -0.067707073328353129 0 0.20369546510015538 
-0.064400070729838929 -0.067707073328353129 0 0.20369546510015538 
-0.53931834880588203 -0.10748624189342729 0.17240505472540121 0.046162958194320085 
-0.064400070729838929 -0.067707073328353129 0 0.20369546510015538 
-0.031538929534578389 0.12374249851550997 -0.014063168510470014 0.13638471091387258 
-0.064400070729838929 -0.067707073328353129 0 0.20369546510015538 
0.18838434820929978 -0.33586959477617334 0.10930803892777957 -0.21406590938397654 
-0.064400070729838929 -0.067707073328353129 0 0.20369546510015538 
-0.064400070729838929 -0.067707073328353129 0 0.20369546510015538 
-0.18579335311512674 0.19477831797117215 0 0 
-0.25763914122136078 0.27729761490118782 0 0 
-0.15302915987504737 -0.078921628946116845 0.19220532282889183 -0.024570680902882766 
-0.1603379594800296 0.092503087941182685 3.2526065174565133e-19 1.7347234759768071e-18 
-0.14406482364758286 0.17525577356034183 -0.036787635609102143 -0.049935138215879721 
0.015050437179223337 0.11775170577682045 -0.036787635609102143 -0.097542696002315826 
0.035654072996045193 -0.19026494967367633 -1.7347234759768071e-18 0.05007888524139055 
-0.18579335311512674 0.19477831797117215 0 0 
-0.18579335311512674 0.19477831797117215 0 0 
-0.19784345406724868 -0.046650917615420361 0.031021668023042175 0.098586913871669013 
-0.030005166788415194 0.081702438541693026 0 0 
-0.31823664509859517 0.017856342614159384 0.22527831871469262 0.080296915331552296 
0.16790494108536119 -0.12121341794064977 -0.51218537116440199 0.18459149595982857 
-0.25998332312635258 0.31696032195031021 -0.31096987347208338 0.14323435338185594 
-0.030005166788415194 0.081702438541693026 0 0 
0.0434596201070271 0.020863593435693051 -0.045103631244259326 0 
0.12605858917391491 -0.14791534863376887 0 0 
0.12605858917391491 -0.14791534863376887 0 0 
-0.3686670955500761 0.5186397488034149 -0.27913128262406539 -0.15513345819562954 
0.12605858917391491 -0.14791534863376887 0 0 
0.0092719454911946286 0.0088416303772866807 0.10077572702954483 -0.2233512469834083 
0.12605858917391491 -0.13438662038972521 0 -0.039231914447021017 
0.26452063300787898 -0.23610335629807647 -0.014577338326313267 0 
0.15471564189008796 -0.17647345419318458 0 -0.083591900481990056 
0.30476744392591226 -0.29594067186060813 -0.030852050105243289 -0.083591900481990056 
0.15471564189008796 -0.17647345419318458 0 -0.083591900481990056 
0.15471564189008796 -0.17647345419318458 0 -0.083591900481990056 
-0.038358726828707605 0.2913874583809668 -0.20507436579303254 0.0098785163312668147 
0.04616596294530162 0.024032220169543886 0 -0.0014024808200669015 
-0.0033895679132597239 0.064830861418119751 -0.065208223527516332 -0.05359977045376247 
-0.0033895679132597239 0.079568623020627019 0 -0.0014024808200669015 
0.1005527607211737 -0.098230070356379234 0 -0.14895731317942779 
-0.0033895679132597239 0.079568623020627019 0 -0.0014024808200669015 
-0.36753754615429551 -0.036419627405350027 0.26288162320972525 -0.0052631297481974962 
-0.0033895679132597239 0.079568623020627019 0 -0.0014024808200669015 
-0.0033895679132597239 0.079568623020627019 0 -0.0014024808200669015 
-0.046761654655678594 0.12731689283620568 0.19986736590083501 -0.15443348210328703 
-0.048451304279766003 0.057546204876608463 0 -0.039200460313611754 
-0.048451304279766003 0.057546204876608463 0 -0.039200460313611754 
0.16073897604717929 -0.069150281125943347 -0.080618023613183126 -0.24532053748236826 
-0.048451304279766003 0.057546204876608463 0 -0.039200460313611754 
-0.15828465030842861 0.13542480531420606 -0.099439839331996766 -0.16780065381073786 
-0.048451304279766003 0.057546204876608463 0 -0.039200460313611754 
-0.048451304279766003 0.057546204876608463 0 -0.039200460313611754 
-0.048451304279766003 0.057546204876608463 0 -0.039200460313611754 
-0.048451304279766003 0.057546204876608463 0 -0.039200460313611754 
0 -0.46231540635562263 -0.031066526671654267 0.32678029627613864 
0 -0.46231540635562263 -0.031066526671654267 0.32678029627613864 
0 -0.46231540635562263 -0.031066526671654267 0.32678029627613864 
0 0.17230104849727171 -0.11126085286126335 -0.030966182027192635 
-0.013478880430057126 0.037872228515047394 -0.095485254568991859 -0.046770219649502308 
0 0.038039940387314737 -0.027994753940876083 0 
0 0.038039940387314737 -0.027994753940876083 0 
0 0.038039940387314737 -0.027994753940876083 0 
0 -0.046497982170405079 0.11492989897974019 -0.10552844869592538 
0 0.038039940387314737 -0.027994753940876083 0 
0 0.038039940387314737 -0.027994753940876083 0 
-0.05449785305648186 0.16204135411908088 -0.078039014895391168 0.10531028486192731 
0 0.038039940387314737 -0.027994753940876083 0 
0 0.038039940387314737 -0.027994753940876083 0 
-0.014901128850501173 -0.31095909291522023 0.17823121955850391 0.22528155911816336 
0.1227854349816945 -0.048858897208209566 0 0 
0.51355009107907235 -0.19042867962859836 -0.11894270819528098 -0.23777434441967141 
-0.20188568117672528 -0.040039528955411449 0.12228360057833057 0.13498783557374164 
0.40802651650421762 -0.28187040699083676 -0.075491316410945003 0 
0.1227854349816945 -0.048858897208209566 0 0 
-0.21147480759585449 0.210256787189709 0 0 
-0.21147480759585449 0.21267312998779081 0 -0.030526240699153998 
0.0028835094622697965 0.036560146623725878 0.14842921272830659 -0.31588486278929728 
-0.21147480759585449 0.26630374095782838 0 0 
0.087750921823726444 -0.048592009420993718 -0.22129913477942334 0.0098038706345027916 
-0.32609774246013623 0.33742930038615981 0 0 
-0.21147480759585449 0.210256787189709 0 0 
0 0.056540288822632796 0 0 
0 0.056540288822632796 0 0 
0 0.056540288822632796 0 0 
0.068649587198805692 -0.0043521466134497921 0.16192950450668572 0.047815783994961433 
0 0.056540288822632789 0 0 
-0.051585027487635403 0.25607005573879271 -0.21821462892605695 -0.048498959822005222 
-0.056600979069454563 0.1745171607035309 -0.18712371361520741 -0.26358072457363541 
-0.042594139014976218 0.12143872814991438 -0.075989710859317425 -0.23633457821031101 
0 0.056540288822632796 0 0 
0.27400497551418757 -0.096981934476434828 -0.12045369888440328 -0.31572242363555525 
-0.094946334558754411 0.35195621895067231 -0.18847023149194614 -0.35971981853527696 
-0.072193990554475382 0.17766151064944319 -0.0081752343658720635 -0.049920087401147763 
0 0 0 0 
0 0 0 0 
0 0 0 0 
-0.015772538748044587 -0.00086197397592466599 0.13886085432185979 -0.053095107356633461 
0 0 0 0 
0.12436512665495947 0.10228791163116326 -0.22273068262172305 0.063158687805930563 
0 0 0 0 
-0.26403325161345265 0.37861840324149448 -0.099224321226218937 -0.13879912160750763 
0 0.015599311266190512 0 -0.0054488580998132072 
0 0.015599311266190512 0 -0.0054488580998132072 
0 0.015599311266190512 0 -0.0054488580998132072 
-0.16795555796340639 0.010093572456608352 -0.16719370071044876 0.058978071872661249 
0 0.015599311266190512 0 -0.0054488580998132072 
-0.37251235984932418 0.20739199203493647 -0.013842532796069583 0.27737124575698641 
0 0.015599311266190512 0 -0.0054488580998132072 
0 0.015599311266190512 0 -0.0054488580998132072 
-0.46515901770588702 0.42556953724104229 0.060673245422268707 -0.0054488580998132072 
0 0.015599311266190512 0 -0.0054488580998132072 
-0.11833913504645295 -0.11714546521576341 0 0.24242334767740351 
-0.11406876728424885 -0.25168384424471102 -0.04398530904370225 0.45544993155548319 
-0.21501920007702949 0.33820400858025879 -0.2195033901250836 0.065638047409662961 
0.018656924850801865 -0.12853523962747102 -0.043773414459536981 0.083245393783290336 
-0.11833913504645295 -0.11714546521576341 0 0.24242334767740351 
-0.16234760134951656 -0.22997511187804731 -0.13488804109557978 0.37121177179530612 
-0.084333843157538446 -0.10467362024976452 0.10656852750591511 0.070073046397010258 
-0.19033923651366055 0.09868355191809168 -0.045095282872437331 0.16619446111865013 
-0.11833913504645295 -0.11714546521576341 0 0.24242334767740351 
-0.0097322904511977816 0.094425646755905285 0 -0.10438569434776365 
-0.02907202654414795 0.20627392192719296 -0.019138594130481672 -0.13537100855584522 
-0.0097322904511977816 0.094425646755905285 0 -0.10438569434776365 
-0.0097322904511977816 0.094425646755905285 0 -0.10438569434776365 
-0.30648255648156397 0.47132017987159064 -0.16240880831281762 -0.31409530194923052 
0.031650384093533206 -0.22783324976002134 -0.47875339995494082 0.27586859351354143 
-0.0097322904511977816 0.094425646755905285 0 -0.10438569434776365 
-0.0097322904511977816 0.094425646755905285 0 -0.10438569434776365 
6.9388939039072284e-18 0.22110015402309585 -0.036411024228310516 -0.067474901803895426 
-0.069041313080681829 0.14917956237202459 -0.45914420683012969 -0.033805840466552106 
0 0.14730469039332225 -0.036411024228310516 -0.0050137758766966717 
0.24913088985632367 -0.17356389662043939 0.16139126272482879 -0.14874096201792453 
-6.9388939039072284e-18 -0.071690070805959294 -0.091762620636061554 0.26428517896577791 
0 0.14730469039332225 -0.036411024228310516 -0.0050137758766966717 
0.034933345215350312 -0.088958384142350133 -0.080215628400074235 0.05927800202436008 
-0.35893615951652691 0.20297155216688248 0.014480142614540139 0.084064532913824055 
0 -0.091843160221478759 0.23049582151341089 -0.0050137758766966717 
-0.38414962572961375 0.2387561370664425 0.47102517376461134 -0.28959108357642432 
0.12639084275815166 0.18401926426813733 0.047510783291372628 -0.054025673244908243 
0 0.082451323802507318 0.10004686770400012 -0.0050137758766966717 
0.10434088859004671 -0.046138957211557072 -0.04109328722866528 0.057390851887681144 
0.0090498443268374508 -0.040343977799214052 0 0 
0.30183805321320811 0.11857912150807701 -0.14456552342349135 -0.28766593279549701 
0.012581001703800379 -0.34448789700967752 -0.014020234529827728 0.28125347406455498 
0.0090498443268374508 -0.040343977799214052 0 0 
0.011850262274783949 0.10801375025258696 -0.044763270506805869 -0.1598561621073431 
0.0090498443268374508 -0.040343977799214052 0 0 
0.053759128521493942 -0.069540989927603075 0 -0.094833547247991409 
-0.21482188250284945 0.33704547208037761 0.094789344287094707 -0.31430285167921068 
0.053759128521493942 -0.069540989927603075 0 0 
-0.19662481075708088 -0.069540989927603075 0.26550613921161464 0 
0.053759128521493942 -0.069540989927603075 0 0 
-0.096936153331621408 -0.0023540920435530248 -0.0040505069879651434 0.1624696220780526 
-0.096936153331621408 -0.0023540920435530248 -0.0040505069879651434 0.066448813528126816 
0.0022113034253331068 -0.061337393424506115 -0.011848589185526481 0.11854607383573329 
-0.096936153331621408 -0.0023540920435530248 -0.0040505069879651434 0.1624696220780526 
-0.096936153331621408 -0.0023540920435530248 -0.0040505069879651434 0.1624696220780526 
-0.096936153331621408 -0.0023540920435530248 -0.0040505069879651434 0.1624696220780526 
-0.096936153331621408 -0.0023540920435530248 -0.0040505069879651434 0.1624696220780526 
0 0.026080530699126539 -0.024028885287613645 -0.072594789357221107 
-0.5457348548130676 -0.25901060837670098 0.47298922590556736 -0.27553007873970536 
-0.081362719437034936 0.28576668686022011 -0.1823237290650446 0.11065428218154832 
-0.22296656924706937 0.66630134388107032 -0.55599179375032104 -0.24961764620638838 
-0.14864663796107247 0.17664735599354101 -0.084392157104719492 -0.075063688147932212 
-0.026799858320585877 0.014622969263165114 -0.018746857336177716 -0.054325333329403702 
0 0.0031652744552945924 0 -0.054325333329403723 
0 0.0031652744552945924 0 -0.054325333329403723 
0.22821670256206361 -0.033337626899084323 -0.14357850383050935 -0.24033953872446789 
0 0.0031652744552945924 0 -0.054325333329403723 
-0.051818087493061132 0.31173439357885296 -0.023123673709379532 -0.18538433972891902 
-0.13500369121761346 -0.11097116923415663 0.14403461579961041 0.015858101888211126 
-0.051818087493061132 0.31173439357885296 -0.023123673709379532 -0.18538433972891902 
-0.051818087493061132 0.31173439357885296 -0.023123673709379532 -0.18538433972891902 
0.15691464491785453 -0.11782371064462263 0 -0.076450800119874873 
0.15691464491785453 -0.11782371064462263 0 -0.076450800119874873 
0.30444762428140676 -0.08995874414719976 -0.037982653242995941 -0.24731481777820391 
0.15691464491785453 -0.11782371064462263 0 -0.076450800119874873 
-0.072800859814513799 -0.22792620611863862 -0.094918177168582613 0.31462492019890737 
0.15691464491785453 -0.11782371064462263 0 -0.076450800119874873 
-0.011868176977297791 0.055408483568054424 0 -0.031618890202172747 
0.08092130836174187 -0.16706482651642557 0.18455133229800255 -0.026987820715924517 
0.051036970587998706 0.027863789235292383 -0.025702854717911089 -0.26278790332344043 
0 0 0 0 
0.05216151784354868 0.14163464223421118 -0.010989024259178999 -0.080102656868005578 
0.19619766512477951 -0.39613807419235364 0.19542153429701564 0.0094122006763157802 
0.10684470124631107 -0.11481734640895708 -0.047008721802006145 -0.041186292589092906 
0.09573307419352127 -0.080028882374015106 -0.0029945716554218957 -0.030206860412762781 
0.22339128507311232 -0.091343668664643107 -0.058117545649395974 -0.12238803130633788 
0 0 0 0 
0 0 0 0 
0 0 0 0 
0 0 0 0 
0.1933166703387679 -0.068431192943472802 0 -0.04490809926582235 
0.021039977869452595 0.08429183525873811 -0.045739517057347558 -0.11682046424983167 
0 0 0 0 
0 0 0 0 
0 0 0 0 
0 0 0 0 
0.059999916375406449 -0.026970451841648577 0.42292867395580275 -0.34061492945506056 
0.17662586655104426 -0.19059766717490551 0 0 
0.17662586655104417 -0.19059766717490551 -0.02888966103906157 0 
0.17662586655104426 -0.19059766717490551 0 0 
0.17662586655104426 -0.19059766717490551 0 0 
0.54790455616965672 -0.3096543924219351 -0.022305980892057126 -0.31749759799194455 
0.095725455755456823 -0.19059766717490551 0 0.10800186552354266 
0.17662586655104426 -0.19059766717490551 0 0 
0.098079219237915585 -0.13012985470751726 0 -0.0068917758561220805 
0.098079219237915585 -0.13012985470751726 0 -0.0068917758561220805 
0.067278648620181652 0.1213854035011136 -0.11856499111451251 -0.18459145020392459 
0.098079219237915585 -0.13012985470751726 0 -0.0068917758561220805 
0.098079219237915585 -0.13012985470751726 0 -0.0068917758561220805 
0.098079219237915585 -0.13012985470751726 0 -0.0068917758561220805 
0.098079219237915585 -0.13012985470751726 0 -0.0068917758561220805 
0.098079219237915585 -0.13012985470751726 0 -0.0068917758561220805 
-0.15660821234038205 0.22189157752709876 0.013721061560442553 0.031131073191960835 
0 0.13946022095213237 0 0 
0 0.13946022095213237 0 0 
-0.65869782990211667 0.013221855974810577 0.15351143901944569 0.058037367043498059 
0.015591420530737275 0.096201672392641824 -0.34697422923431137 0.19573518395884895 
-0.19884137335885607 0.120283903447182 0.13095224929082727 -0.056421113387604208 
-0.0014785754610880629 0.21090194368069368 -0.022412503632861538 -0.079106501956885483 
0.33770869857736591 0.0054263993691384778 -0.16214239065772962 -0.081308772445523342 
0.13811837091783077 -0.55980031138837782 0.020387083078760755 0.017529524675375625 
0 0.13946022095213237 0 0 
-0.042924522744360989 -0.15216706826296461 -0.10202338505882151 -0.04381896705476291 
0 0.13946022095213237 0 0 
0 0.13946022095213237 0 0 
-0.097355134927291101 0.18762820800589336 0 -0.047141746111033882 
-0.056232943306782954 0.21304182065175642 -0.049344383842563552 -0.047141746111033882 
-0.23328315343511494 0.090258523678247063 0 0.049356335623655725 
-0.097355134927291101 0.18762820800589336 0 -0.047141746111033882 
-0.60967050083216745 -0.0042921464449983213 0.33509186723252687 0.073583045945028333 
-0.097355134927291101 0.18762820800589336 0 -0.047141746111033882 
0.089141464401823578 0.098692103973656714 -0.032450259342269909 -0.067970551570300047 
-0.097355134927291101 0.18762820800589336 0 -0.047141746111033882 
-0.097355134927291101 0.18762820800589336 0 -0.047141746111033882 
0 -0.065845958220525649 0.05302898860329152 0 
0 -0.33390001191216556 0.28154341565209173 -0.20886509841815276 
0.25629433631036896 -0.26952590531155429 0.05302898860329152 0 
0.22633641366431989 -0.19550068919081998 0.05302898860329152 0 
0 -0.065845958220525649 0.05302898860329152 0 
0 -0.065845958220525649 0.05302898860329152 0 
0 -0.065845958220525649 0.05302898860329152 0 
0 -0.065845958220525649 0.05302898860329152 0 
-0.0016239825481618939 -0.26575332084280934 -0.23888317592881622 0.52346926947769767 
0 -0.1395946377263903 -0.23888317592881625 0.33734020043434659 
0 -0.099335965870284121 -0.10081104765459896 0.10519091919964207 
-0.22691493492826176 0.023074298528682386 0.3216773725192637 0.079721415023384146 
0 -0.1395946377263903 -0.23888317592881625 0.33734020043434659 
-0.31461420578583299 -0.067622548642258543 0.45608085593515429 -0.26809801900658059 
0 -0.11035046932544892 0.13313575455391485 -0.017552794779837566 
0 -0.11035046932544892 0.14711073842479125 -0.017552794779837566 
0.14555682828745362 -0.17952221992013845 0.1142910398896391 -0.070206715950392545 
0 -0.11035046932544892 0.14711073842479125 -0.017552794779837566 
-0.080264786789392292 0.060513363500897949 0.14711073842479125 -0.017552794779837566 
0.14897503455817446 -0.036280188005336174 0.051070214590507791 -0.02347866797163492 
0 -0.11035046932544892 0.14711073842479125 -0.017552794779837566 
0 -0.11035046932544892 0.14711073842479125 -0.017552794779837566 
-0.0064920543980465711 0.011325414433862258 -0.13431215303549274 -0.048138645763222625 
0.15847956224771997 -0.14389835850855784 0.1054052051460731 0.12813593039878546 
-0.54241163390887381 0.016901235830961082 0.23449827305807927 -0.029699371304942376 
0.15426384826931172 -0.13601924522117673 -0.18894975314157353 -0.11303147387924484 
-0.0064920543980465728 0.13386308947224312 -0.019472293923212588 0 
-0.54780187784588197 0.65165856383300325 -0.25147426682543239 -0.18507451071358741 
0.06005647801401684 0.1287274275261609 -0.10557210296612915 -0.058805870663081558 
-0.0064920543980465728 0.13386308947224312 -0.019472293923212588 0 
-0.0064920543980465728 0.13386308947224312 -0.019472293923212588 0 
-0.011710742895949321 0 0 0.098018967317890768 
-0.011710742895949321 -0.054511274555907374 -0.014797173857350202 0.13968341450202085 
-0.011710742895949321 0 0 0.098018967317890768 
0.0031959149186911642 -0.097719657222525735 0.11622378796272059 0.034047308574036511 
-0.011710742895949321 0 0 0.098018967317890768 
-0.011710742895949321 0 0 0.098018967317890768 
-0.011710742895949321 0 0 0.098018967317890768 
-0.002712493521154765 -0.097956504682232534 -0.20998103755083344 0.10452003518565373 
0.031587086587468484 0.20022618505177903 -0.15415166851975459 -0.18224444104500914 
-0.048615951725118539 -0.37977975904972511 0.044955176595829434 0.021462054057511615 
-0.025787130153597543 0.064987379026909056 -0.22474642175865364 0.19105812452141288 
0 0.30718450336953129 -0.16967626798853383 -0.082625201002775955 
0 0.30718450336953129 -0.16967626798853383 -0.082625201002775955 
-0.063149827075725223 -0.037241714893441802 -0.17332728466685415 -0.091443780119449272 
0 0.30718450336953129 -0.16967626798853383 -0.082625201002775955 
0.32622048681099891 -0.41741334391671292 -0.17932265855881199 0.084793298645035972 
-0.8457992046937497 -0.13583329113872791 0.7745755497500475 -0.13554890479530313 
-0.33007062262240011 0.1073411327910605 0.19685740108396044 0.14660172844431077 
-0.017833076438909579 0.079242524574721057 0 -0.026411129529440171 
0.12229251747961539 0.025832611032330085 0 -0.2024668892219281 
-0.017833076438909579 0.079242524574721057 0 -0.026411129529440171 
-0.017833076438909579 0.079242524574721057 0 -0.026411129529440171 
-0.017833076438909579 0.079242524574721057 0 -0.026411129529440171 
-0.017833076438909579 0.079242524574721057 0 -0.026411129529440171 
-0.017833076438909579 0.079242524574721057 0 -0.026411129529440171 
0.0079661795876296033 0.070678175822199513 -0.1217970355550399 -0.032221206330906756 
0.14279696020205673 -0.059450371644068606 -0.089967429870118062 -0.082471843278847962 
-0.1374084147594915 0.27627656430019071 -0.015939256351895737 -0.0799797977181185 
-0.16168990352851986 0.11171074325320603 -0.16323355731872186 0.080487975332808243 
-0.049861840459027043 0.071106100728016777 0 -0.0036541147777732499 
-0.049861840459027043 0.071106100728016777 0 -0.0036541147777732499 
-0.049861840459027043 0.071106100728016777 0 -0.0036541147777732499 
-0.049861840459027043 0.071106100728016777 0 -0.0036541147777732499 
-0.049861840459027043 0.071106100728016777 0 -0.0036541147777732499 
-0.041444570073714451 0.038207925596779352 0 0 
-0.071845788106234418 0.082519296930015612 0 0 
-0.085224869865744887 0.067728473520189375 0.2780185169696478 -0.20233200462406906 
-0.075718145435828527 -0.11651938748844248 0.28996402852361497 0.12961854456556388 
0.11376471818407684 -0.044582377069322311 -0.04797449923271116 -0.08990885447801461 
-0.071845788106234418 0.082519296930015612 0 0 
-0.060740092785746679 -0.13115239936207657 0.29469512384044688 -0.0034564965222482757 
-0.30267663734869366 0.34882126504249295 0 0 
-0.30267663734869366 0.34882126504249295 0 0 
-0.19272230303794069 0.059800051958188896 -0.11231116685941617 -0.062518160272052509 
-0.30267663734869366 0.34882126504249295 0 0 
-0.30267663734869366 0.34882126504249295 0 0 
-0.22822407364580838 0.11932850148004519 0 0.3129965353528501 
-0.20571042430532754 -0.071255001834508613 0 0.45753630409033896 
-0.20571042430532754 -0.071255001834508613 0 0.45753630409033896 
-0.20621216820059388 0.073091572609828709 -0.010989024259178999 0.37743364722233358 
-0.20571042430532754 -0.071255001834508613 0 0.45753630409033896 
-0.43821830385855176 -0.011151446816174478 0.197742128352798 0.22336470092403463 
0.32671518251046117 -0.16580828341921872 -0.34621470908087532 0.14405263755318692 
0.25705564794403923 0.062402349967997775 -0.43184139641821817 -0.57096794492452951 
-0.081448194690137518 0.016701817371610944 0.1010764236789969 -0.17849909386080842 
0.16424998231036678 -0.39464385198166602 0.30527606045894096 -0.10944976287268975 
-0.0024264522261884854 0.046268350726412812 0.10903742872204002 -0.064518697510957429 
-0.081448194690137532 -0.074022556698058697 0.19216123752004421 0 
-0.33615482023732002 -0.051215199051880447 0.56814335798946836 -0.20275648225378659 
-0.081448194690137532 -0.074022556698058697 0.19216123752004421 0 
-0.081448194690137532 -0.12282658099209005 0.28275234769491675 -0.11633665435519759 
-0.081448194690137532 -0.074022556698058697 0.19216123752004421 0 
-0.081448194690137532 -0.074022556698058697 0.19216123752004421 0 
-0.081345118819084697 0.068268581653616975 0 -0.015693030324897987 
-0.081345118819084697 0.068268581653616975 0 -0.015693030324897987 
-0.081345118819084697 0.068268581653616975 0 -0.015693030324897987 
0.22690630633295195 -0.094641385871255229 -0.1074147844493643 -0.079770272515911761 
0.29555197250534715 -0.10857146035459431 -0.15605754182541018 -0.015693030324897987 
-0.081345118819084697 0.068268581653616975 0 -0.015693030324897987 
-0.081345118819084697 0.068268581653616975 0 -0.015693030324897987 
-0.081345118819084697 0.068268581653616975 0 -0.015693030324897987 
-0.081345118819084697 0.068268581653616975 0 -0.015693030324897987 
0.18931655756539792 0.01727881521482956 -0.26952696776866425 -0.092075559714077188 
0.037825446165886512 -0.012675301951942886 -0.031821989347305221 -0.083116328540026749 
-0.31820962498207511 0.49866476830412942 0 -0.11614913993488626 
-0.19717585104745977 0.32258161253893675 0.10302244795686891 -0.064204247357216998 
-0.31820962498207511 0.49866476830412942 0 -0.11614913993488626 
0 -0.16404807445975031 -0.021015982465251538 0.21340649885739271 
0 -0.16404807445975031 -0.021015982465251538 0.21340649885739271 
0 -0.16404807445975031 -0.021015982465251538 0.21340649885739271 
0 -0.16404807445975031 -0.021015982465251538 0.21340649885739271 
0 -0.16404807445975031 -0.021015982465251538 0.21340649885739271 
0 -0.16404807445975031 -0.021015982465251538 0.21340649885739271 
-0.41642393228061048 0.21203598950279887 0.19431937101375868 0.11521583646234283 
0 -0.16404807445975031 -0.021015982465251538 0.21340649885739271 
-0.059543572540112964 -0.01628382292508028 0.081789567264688195 -0.04740908090792903 
-0.40792472527737145 0.10187532650523455 -0.099335504038838229 0.26714811966698304 
-0.04436298588687982 0.038620962035461226 0 0 
-0.04436298588687982 0.038620962035461226 0 0 
-0.04436298588687982 0.038620962035461226 0 0 
-0.04436298588687982 0.038620962035461226 0 0 
-0.14391226496317341 0.18487765986667196 0 -0.071210524617763116 
0.22175929552644391 0.20015039222661224 -0.066634740699411263 -0.33754369974333637 
-0.04436298588687982 0.038620962035461226 0 0 
-0.044362985886879827 0.18224604332372385 0 -0.080927901101947974 
0.21616451215508983 -0.26364841402783296 -0.083864503225483222 0.095510165497652663 
-0.13140035135665681 -0.10092747768448711 -0.083864503225483222 0.22971125394402456 
-0.081339217312999729 -0.17813189716208302 -0.083864503225483222 0.26305940394459193 
-0.081339217312999729 -0.17813189716208302 -0.083864503225483222 0.26305940394459193 
-0.081339217312999729 -0.17813189716208302 -0.083864503225483222 0.26305940394459193 
-0.081339217312999729 -0.17813189716208302 -0.083864503225483222 0.26305940394459193 
0.088785692593999946 0 -0.066748506388758067 -0.034309382087267346 
-0.09743782459654414 -0.34497454218605933 0.56994202907822766 0.067813001839850395 
0.0010574356397226804 -0.017351260585087118 0.12758915612528576 -0.2990015473017143 
0.088785692593999946 0 -0.066748506388758067 -0.034309382087267346 
0.088785692593999946 0 -0.066748506388758067 -0.034309382087267346 
-0.20378892127729678 -0.15849147245122677 -0.34417505513812757 0.31878420055396073 
0.18648529318525525 -0.082926954065005415 0.036942636687304693 -0.21105102621871508 
0.032176828934832702 -0.028543414071141724 -0.14530573464157664 0.097236738502395559 
0.088785692593999946 0 -0.066748506388758067 -0.034309382087267346 
0.088785692593999946 -6.9388939039072284e-18 -0.066748506388758067 -0.057596642743802315 
0.088785692593999946 0 -0.066748506388758067 -0.034309382087267346 
-0.27210090707578238 0.1519819699462335 -0.026237471018203683 0.25731132486468844 
0.51173133645230928 -0.48449641718965392 -0.046945911707112556 -0.24297898033613399 
-0.46238706672526225 0.018359584477012383 0.24948563624891867 0.54035393741301696 
-0.10813220766643285 -0.091453310064506188 -0.010246837782840948 0.19746536562962697 
-0.1071838339426284 -0.22890365894126016 0.014010728004661393 0.17509555029222187 
0.031890888292907218 -0.060919715752320816 -0.010246837782840948 0.088161697537366412 
-0.10813220766643285 -0.091453310064506188 -0.010246837782840948 0.19746536562962697 
-0.10813220766643285 -0.091453310064506188 -0.010246837782840948 0.19746536562962697 
-0.10813220766643285 -0.091453310064506188 -0.010246837782840948 0.19746536562962697 
-0.10813220766643285 -0.091453310064506188 -0.010246837782840948 0.19746536562962697 
-0.12685272601991418 0.1827903299270264 0 0 
-0.12685272601991418 0.1827903299270264 0 0 
-0.12685272601991418 0.1827903299270264 0 0 
0.16412605894804591 0.074920382613646419 -0.03927697955438092 -0.2580552608832708 
-0.12685272601991418 0.1827903299270264 0 0 
-0.0064648764337134762 0.094882778777590757 -0.053774755728566416 -0.026244923234794781 
-0.17395481294596948 0.15253824420935214 0.076323106819267475 0.11262443406548781 
-0.12685272601991418 0.1827903299270264 0 0 
-0.12685272601991418 0.1827903299270264 0 0 
0 -0.19795891231396526 0 0.17882326905781401 
0 -0.19795891231396526 0 0.17882326905781401 
-0.087233132627147297 -0.13875865471664428 0.13866689783154418 -0.010856081539810752 
0 -0.19795891231396526 0 0.17882326905781401 
0 -0.19795891231396526 0 0.17882326905781401 
-0.13570057206323621 -0.023817907588753431 -0.11590469196609055 0.28326421528847118 
0 -0.19795891231396526 0 0.17882326905781401 
-0.014362511956853652 -0.0056236219475012169 -0.058999496517769416 -0.08072802378951241 
0 -0.19795891231396526 0 0.17882326905781401 
-0.25627428273365827 0.43734556158424642 -0.043862997345459225 -0.21788400256273746 
-0.28847531520074188 0.056874456537941223 -0.083949704986520629 0.073096660386444273 
-0.11639560512569674 0.1043227418958879 -0.017710575076713208 0.062631261399633209 
0.00043421015192432466 -0.086853551847705213 -0.0021318137979692963 0.063244610041333138 
-0.16060421105033174 -0.076049502160333446 0.1475026955864949 0.0083884927444526775 
0 -0.29329676433343149 0 0.10073290851866396 
-0.19078526074564506 -0.067268829796314517 0 0.10073290851866396 
-0.36375496783703387 -0.069663539643817565 0.35573269116221684 0.047470252098117387 
0 -0.29329676433343149 0 0.10073290851866396 
0.13472118144254691 -0.092987591445020973 0 0.097656778087763824 
0.17121253601055034 -0.055460653096580666 0 -0.090149006554633759 
-0.014518938884513638 0.11823327570390349 0.13382160573609758 -0.13448545664055747 
0.14322305796402393 -0.35058686109032783 0.28538842722838537 -0.0066591137552741604 
0.17121253601055034 -0.055460653096580666 0 -0.090149006554633759 
0.17121253601055034 -0.055460653096580666 0 -0.090149006554633759 
0.17121253601055034 -0.055460653096580666 0 -0.090149006554633759 
0.17121253601055034 -0.055460653096580666 0 -0.090149006554633759 
0.17792842899526243 -0.25261956398542373 0 -0.020771125391957322 
0.17792842899526243 -0.25261956398542373 0 -0.020771125391957322 
0.17792842899526243 -0.25261956398542373 0 -0.020771125391957322 
0.076711704856936749 -0.11474726541144854 -0.019138594130481672 -0.05175643960003861 
0.17792842899526243 -0.25261956398542373 0 -0.020771125391957322 
-0.08189754429983552 0.22421979362767161 -0.00015362965474990302 -0.11387587802169286 
0.050278005841330478 0.15369972251565134 -0.00015362965474990302 -0.19039118951842476 
-0.012875833061975976 -0.0060564733640969086 -0.10493888542343538 -0.02507252010372954 
0.052747413773749537 0.25725468030348014 -0.00015362965474990302 -0.21821912141537697 
0.12572078933033359 -0.43042109276952067 0.20871894513724062 0.072086931154476591 
-0.16954736790356853 0.2042101308406109 -0.060763928812500416 0.0049527258342403103 
-0.08189754429983552 0.13949140970699142 0.124847185176147 -0.11387587802169284 
0.27594706599894459 -0.28753785008408694 -0.055709004103934666 0.084952056741520066 
-0.08189754429983552 0.22421979362767161 -0.00015362965474990302 -0.11387587802169286 
-0.14523350331870538 0.47984757935559735 -0.0026899821098697401 -0.11387587802169284 
-0.48327678514447237 -0.02150212200176068 -0.26748569838919606 0.60590271014517616 
0.41624734322798546 -0.19969202108989426 -0.14947329210662458 -0.32168855003683355 
-0.054949527573684896 0.1035073760533506 -0.2004967890586154 0.067632757923581061 
0.11591090281756126 0.14574944504524528 -0.17595934401752852 -0.11179636316800678 
-0.080264786789392306 0.17086383282634687 0 0 
-0.080264786789392306 0.17086383282634687 0 0 
-0.080264786789392306 0.17086383282634687 0 0 
-0.096494470708885685 0.063310409134349169 0 0 
0.16667558680757275 0.13375173093990894 0.02960634277596411 -0.084170112303132635 
-0.096494470708885685 0.063310409134349169 0 0 
-0.096494470708885685 0.063310409134349169 0 0 
-0.096494470708885685 0.063310409134349169 0 0 
-0.096494470708885685 0.063310409134349169 0 0 
-0.096494470708885685 0.063310409134349169 0 0 
-0.096494470708885685 0.063310409134349169 0 0 
-0.096494470708885685 0.063310409134349169 0 0 
-0.096494470708885685 0.063310409134349169 0 0 
-0.24631840781747705 0.30834911104425861 0 0 
-0.24631840781747705 0.30834911104425861 0 0 
-0.034998828292021028 -0.04549019731107784 -0.0043351440739742243 -3.0357660829594124e-18 
-0.24631840781747705 0.30834911104425861 0 0 
-0.24631840781747705 0.30834911104425861 0 0 
-0.14366833483506969 -0.0048590987597516497 0.11265610098095089 0.15345440902144808 
-0.24447878299082867 0.069930669156515468 -0.21336915656274244 0.094955798338123273 
-0.24631840781747705 0.30834911104425861 0 0 
-0.022572059447195193 0.10623577572822686 0 0 
-0.022572059447195193 0.10623577572822686 0 0 
-0.11850660252811045 0.14960695210367381 0 -0.021652649059216832 
-0.022572059447195193 0.10623577572822686 0 0 
-0.053403968998844718 0.14544322761006642 -0.032084905113701413 -0.19583948747314794 
-0.022572059447195193 0.10623577572822686 0 0 
-0.022572059447195193 0.10623577572822686 0 0 
0.01691513709239259 0.0080374841915870684 -0.17154353348102019 0.091545964249632905 
-0.038745736497426783 0.056094411878664166 0.12637220128057045 -0.02425376382126462 
0.17504401966652799 -0.38261528085014418 -0.56359349301631934 0.16752247493754369 
0.17684341976898879 -0.086376619853215847 0 -0.066810807144725898 
0.17684341976898879 -0.086376619853215847 0 -0.066810807144725898 
0.17684341976898879 -0.086376619853215847 0 -0.066810807144725898 
0.17684341976898879 -0.086376619853215847 0 -0.066810807144725898 
0.084850009615989874 -0.2326785506603686 0.063342661461071412 -0.062843649273641555 
0.37033978789871247 -0.33005299360919027 -0.0042454348577001836 -0.053332029958234044 
0.084034294060533504 0 -0.0042454348577001836 0 
-0.2987497706139447 -0.4303368525212023 0.67639775086705445 -0.45352531043759264 
0.084034294060533504 0 -0.0042454348577001836 0 
-0.31868878649122701 -0.45520297949412614 0.51095195286081829 -0.42916855643247936 
0.22950797462834613 -0.087975465720758372 -0.0042454348577001836 0 
0.084034294060533504 0 -0.0042454348577001836 0 
0.084034294060533504 0 -0.0042454348577001836 0 
0.32979959797507719 -0.33005299360919016 -0.066165422450757003 -0.059878282818184546 
-0.073277744793346047 0.0084585691581545996 -0.028409273888639126 -0.088564566206116524 
0.28630549383817855 -0.33005299360919027 0 -0.053332029958234051 
-0.064256169151502715 0.13052036470431927 0 -0.032478837104747263 
-0.064256169151502715 0.13052036470431927 0 -0.032478837104747263 
-0.14405061960183441 -0.0087904976183884841 -0.022452168572282848 0.10552357968374167 
0.1021750609719219 -0.054347442865674139 -0.038910178072970918 -0.077315094875270829 
-0.064256169151502715 0.13052036470431927 0 -0.032478837104747263 
-0.064256169151502715 0.13052036470431927 0 -0.032478837104747263 
-0.27709003310211339 -0.054603351997895427 0.023976471990125117 0.16396835023486531 
-0.064256169151502715 0.28110170616067981 -0.0095618355928222872 -0.16863800255172481 
-0.064256169151502715 0.13052036470431927 0 -0.032478837104747263 
-0.064256169151502715 0.13052036470431927 0 -0.032478837104747263 
-0.064256169151502715 0.13052036470431927 0 -0.032478837104747263 
-0.064256169151502715 0.13052036470431927 0 -0.032478837104747263 
-0.054444684182647099 -0.077616652209431369 0.33613103553163554 0 
-0.054444684182647099 -0.077616652209431369 0.33613103553163554 0 
-0.054444684182647099 -0.077616652209431369 0.33613103553163554 0 
-0.054444684182647099 -0.077616652209431369 0.33613103553163554 0 
-0.054444684182647099 -0.077616652209431369 0.33613103553163554 0 
-0.054444684182647099 -0.077616652209431369 0.33613103553163554 0 
-0.054444684182647099 -0.077616652209431369 0.33613103553163554 0 
-0.041962136814654466 0.060703396137004519 -0.066713159509548661 -0.023126508383481591 
0.061323294976204167 -0.023363176141875205 -0.011539178113623417 0 
-0.018790543161085436 0.096440434937160674 -0.011539178113623413 -0.0042387960693177611 
-0.036398631216077788 -0.07918745116984155 0.059033019184782723 6.9388939039072284e-18 
0 0.011120501632152996 -0.011539178113623417 0 
0.15007315892784637 -0.18280545701591377 -0.083471586482668503 3.4694469519536142e-18 
0 0.011120501632152996 -0.011539178113623417 0 
-0.43775238340421707 0.45425130480303255 0.18734109063153292 -0.12879181220434358 
0 0.011120501632152996 -0.011539178113623417 0 
0 0.011120501632152996 -0.011539178113623417 0 
-0.10284002834911049 -0.14567045667587042 0 0.1458507052609441 
-0.10284002834911049 -0.14567045667587042 0 0.1458507052609441 
-0.037057346025557027 -0.44022333860101542 0.036089231848562817 0.16159133862516181 
-0.10284002834911049 -0.14567045667587042 0 0.1458507052609441 
-0.3011309698677247 0.050164990127155473 -0.18009523735448651 0.20669811833914825 
-0.24050133566149834 0.13422782748453455 -0.080607206225201483 0.090018308258107277 
-0.10284002834911049 -0.14567045667587042 0 0.1458507052609441 
-0.002703980379972673 -0.25699918538151101 -0.32550121913310248 0.42276270519582859 
0.065514443033466457 0.084856117516469043 -0.021023890395056942 -0.13413004714828711 
-0.084673411725357917 0.026515883228747889 0.092417484599390531 -0.22068870481353037 
0.065514443033466457 -0.033909542040823179 0 -0.016148193040256584 
-0.045668273564163822 -0.15686650422940174 -0.00031188547958854707 0.19629409166089187 
0.32158074486927296 -0.26359408778612514 -0.083411938360155022 -0.14185856431389965 
0.065514443033466457 -0.033909542040823179 0 -0.016148193040256584 
0.065514443033466457 -0.033909542040823179 0 -0.016148193040256584 
-0.0030436838992781439 -0.066665632318667054 -0.49416187282758567 0.18053764931467203 
0 0.16208016272428349 0 -0.072194557403528953 
0 0.043114223653506673 0 -0.072194557403528953 
0 0.043114223653506673 0 -0.072194557403528953 
0 0.043114223653506673 0 -0.072194557403528953 
0 0.043114223653506673 0 -0.072194557403528953 
0 0.043114223653506673 0 -0.072194557403528953 
0.032942274174799301 0.0058174965783597144 -0.1931339874293633 -0.064902602021815609 
0.35220939398883133 -0.18478227260934499 0 -0.16538293663189652 
0.35220939398883133 -0.18478227260934499 0 -0.16538293663189652 
0.35220939398883133 -0.18478227260934499 0 -0.16538293663189652 
-0.11109327020707248 -0.47588357433798945 -0.1889613391830503 0.39187432138138845 
0.35220939398883133 -0.18478227260934496 0 -0.16538293663189652 
0.17534780314724097 -0.14235011810607776 0 -0.019837661261054382 
0.12795085402082856 0.27137932278712873 -0.11948926186663722 -0.2511812432712433 
0.17534780314724097 -0.14235011810607776 0 -0.019837661261054382 
0.063948815914991144 -0.1973273272483706 0.23207322048251622 -0.019837661261054382 
0.063948815914991144 -0.1973273272483706 0.23207322048251622 -0.019837661261054382 
